encog,BasicNetwork,java,3.2.0,1,1481028920976
[BASIC]
[BASIC:PARAMS]
[BASIC:NETWORK]
beginTraining=0
connectionLimit=0
contextTargetOffset=0,0,0
contextTargetSize=0,0,0
endTraining=2
hasContext=f
inputCount=193
layerCounts=2,290,194
layerFeedCounts=2,289,193
layerContextCount=0,0,0
layerIndex=0,2,292
output=0,0,0,0,0,0,0,0,0,0,0,0,0,0,0,0,0,0,0,0,0,0,0,0,0,0,0,0,0,0,0,0,0,0,0,0,0,0,0,0,0,0,0,0,0,0,0,0,0,0,0,0,0,0,0,0,0,0,0,0,0,0,0,0,0,0,0,0,0,0,0,0,0,0,0,0,0,0,0,0,0,0,0,0,0,0,0,0,0,0,0,0,0,0,0,0,0,0,0,0,0,0,0,0,0,0,0,0,0,0,0,0,0,0,0,0,0,0,0,0,0,0,0,0,0,0,0,0,0,0,0,0,0,0,0,0,0,0,0,0,0,0,0,0,0,0,0,0,0,0,0,0,0,0,0,0,0,0,0,0,0,0,0,0,0,0,0,0,0,0,0,0,0,0,0,0,0,0,0,0,0,0,0,0,0,0,0,0,0,0,0,0,0,0,0,0,0,0,0,0,0,0,0,0,0,0,0,0,0,0,0,0,0,0,0,0,0,0,0,0,0,0,0,0,0,0,0,0,0,0,0,0,0,0,0,0,0,0,0,0,0,0,0,0,0,0,0,0,0,0,0,0,0,0,0,0,0,0,0,0,0,0,0,0,0,0,0,0,0,0,0,0,0,0,0,0,0,0,0,0,0,0,0,0,0,0,0,0,0,0,0,1,0,0,0,0,0,0,0,0,0,0,0,0,0,0,0,0,0,0,0,0,0,0,0,0,0,0,0,0,0,0,0,0,0,0,0,0,0,0,0,0,0,0,0,0,0,0,0,0,0,0,0,0,0,0,0,0,0,0,0,0,0,0,0,0,0,0,0,0,0,0,0,0,0,0,0,0,0,0,0,0,0,0,0,0,0,0,0,0,0,0,0,0,0,0,0,0,0,0,0,0,0,0,0,0,0,0,0,0,0,0,0,0,0,0,0,0,0,0,0,0,0,0,0,0,0,0,0,0,0,0,0,0,0,0,0,0,0,0,0,0,0,0,0,0,0,0,0,0,0,0,0,0,0,0,0,0,0,0,0,0,0,0,0,0,0,0,0,0,0,0,0,0,0,0,0,0,0,0,0,0,0,0,0,0,0,0,0,0,0,0,0,0,0,1
outputCount=2
weightIndex=0,580,56646
weights=##0
##double#56646
   -0.1418638971,-0.0679891693,0.6769338978,-5.8545270694,-3.8401754623,-3.2733270743,-1.4926713182,-1.9434569589,0.68118004,2.3666673381,-0.0920405152,0.8689795278,0.3252106195,-0.5109887385,-0.6306208511,0.882583972,-0.2311348918,0.3934947885,-0.0008167026,0.1095864143,-1.7781524459,-7.782923125,0.8244934703,-0.5658947418,-1.8905391452,0.2285277927,2.9366803028,0.3009377161,-0.4097485719,-0.4110876093,0.5684298431,-0.0708060477,0.7069211082,-6.3414925339,0.3951075068,1.2724531081,0.6374933807,-0.9918749078,5.8594944136,-0.4589815348,-0.7690761834,0.0852033141,-10.3580932624,-0.594942649,6.0762218445,-0.0764122735,-3.6456170405,2.425395744,-0.4143798509,0.8941666187,-2.0819453182,-5.92419133,-1.7060321908,0.5603581541,0.8524926254,-0.4717174689,143.5233348174,-0.3430469693,0.4634431808,0.2405992656,-0.2135181316,2.4921769676,-3.1418521809,-0.177384362,3.4824936997,1.3092564775,4.1156329659,7.8524768632,0.2081209764,0.0706029743,0.2078829476,5.1130756969,-4.4087595761,0.7859146393,32.8134746473,-7.8886202973,0.1388894473,1.553590721,4.1415044352,2.6314060531,-3.600589125,-0.2537761764,-0.1560953974,0.0837031785,2.5726991184,-0.016915468,-0.1413506398,0.0375032859,-2.1603633832,6.2003758811,0.8988015177,5.3875065451,0.1527750545,-3.9424106589,0.142429913,-1.5211844356,-2.1044602957,2.8712511203,-1.2234642061,2.5910146414,3.0580959283,2.262836654,-4.1884127335,0.5133689835,0.7296890225,0.813717392,0.4467698512,-0.0161695054,7.1126407762,0.4743025811,-0.5490031963,-0.1460722116,0.2397286849,2.7916152661,0.1496034711,3.2775617416,-3.7397867139,-0.6037514372,-2.3319148937,0.5849042653,1.8016121731,-4.564382188,-3.6829872812,-39.7284930047,-2.5379609156,-1.1797093723,0.1461282043,-5.0014589516,0.0204199099,0.4353815351,-7.5682450639,0.5550445991,2.6491415134,2.7609790976,-0.053773496,-0.2568273719,-4.620625461,-0.2519468679,0.4829074855,-0.1356441323,0.1563491821,3.2422669606,0.5643987843,-4.5910461889,0.2335000045,-0.7116343776,2.4841434595,5.3197212939,0.4114372946,-3.7686535653,-0.0557292123,-1.2639023963,0.4546214964,-2.9436390725,-0.31402607,9.2998501955,-4.1041523218,-4.1287921855,-2.6152827943,0.8250860858,0.2284421109,0.487633653,0.611960521,7.3325209142,0.4750981166,-3.5216666022,3.193469493,-0.2275939165,0.6571456238,-0.1410728956,0.5586318924,3.2292069604,0.1052513176,0.6618176089,-3.4590419122,0.1375437705,0.1371478936,-4.8666852578,-0.3860220989,2.9990146079,0.6321541067,6.4040770537,-6.0531604697,-0.1519690367,-3.5067265734,-2.7303930199,-0.5128168583,-2.1221737564,1.0250307528,-0.3134786212,0.0950010986,0.3166956199,-0.3231569567,0.2727396444,-14.9132922735,2.6803257008,0.6070366734,-0.459974655,0.7411319606,-0.5637909779,7.1985088665,-2.3593279475,2.0448119272,-0.2887496693,3.5576763791,0.69582188,-2.5445146191,-2.2194108794,2.3673084943,-20.5755283157,-0.4456706826,-0.3627019051,-6.734298668,0.268454084,0.8713658215,-0.1239470485,-1.8194383609,0.8313598472,-2.8298619396,0.1939861858,0.5965819764,-4.8823003189,4.0774328849,2.6148212965,-3.1488069728,0.0402660078,1.0967572544,5.6549429761,0.6397396459,-2.6141215996,-3.5263159763,0.7744136632,0.4614078399,2.0613645215,0.3751691904,-0.4677174948,-1.1484882162,-0.4159374515,3.8276248926,0.4075032373,0.7093768691,0.3309633591,-0.2363194872,-0.1533015677,-3.3665663375,-3.2033104473,2.0386841626,0.585456254,-0.4857091842,-0.3058041641,-0.3010448821,-1.931371206,3.6285987641,-0.122630307,0.426948998,0.6666493844,0.9018662321,0.3496313158,-0.627431645,2.2646657344,-0.9325157301,-8.0036122436,-6.0794791292,1.2100306929,2.648570115,5.1407128645,-0.1757358346,0.2221181813,1.6686655307,-0.3923287733,0.3446789931,-0.2213478141,-0.3521981441,-4.0302051156,-0.2894141665,-6.2371712541,-4.3124098828,-0.45652323,3.979073515,-0.4712254077,-3.6780064197,0.4836615717,1.8215761122,0.224127522,0.1315959555,-0.2314673102,0.6958592298,-2.5396380623,0.6451683522,-1.335719743,0.4732692587,-0.308479214,0.2026671585,5.515848677,3.825807009,3.1195521863,1.412636488,1.8557184864,-0.1584450475,-2.5004331521,-0.3305773947,0.1030753998,1.5923908645,-0.6859331537,-0.3012678663,0.468965613,-0.0200455243,-0.0211681189,-0.3056123648,-0.1670548828,1.5958624138,7.5040275732,-0.8567757214,-0.3858298283,1.8349781172,0.3621863495,-3.0483340604,-0.2094500756,-0.1309981229,-0.7105116666,0.3376308533,0.457982945,-0.0137437501,1.2283697033,0.8279111692,-1.4262889058,0.1433377128,0.919199987,-5.8602733587,-0.5268244195,-0.0286586824,0.2011895306,9.2313043495,-0.4080013809,-6.1932230258,-0.885012008,3.5578451193,-2.6000876686,-0.2527501375,0.6700727399,2.1629884629,6.6429518668,2.5210656652,-0.1195388742,-0.531755655,-0.3138985602,-145.699187746,0.5548297789,0.2809214738,0.0867557326,-0.378918522,-2.6145546224,-0.3747015647,-0.5593200003,-3.5535924303,-1.4087085622,-4.347017382,-7.8902123523,-0.1819454942,0.1796248554,0.1019000446,-5.0507475667,4.2804425554,0.2124551103,-44.0569591861,7.7055449932,0.2347431098,-1.6584280228,-4.1673391219,-2.8343453222,3.4119310453,-0.2818973386,0.782338514,0.70767785,-2.6061457671,0.5665632632,-0.3634187193,0.5347454097,2.009924158,-6.2473565052,0.2261786285,-4.9775506528,0.6227885019,3.7780127211,0.5524806123,1.3037911234,1.9242989447,-3.0089407323,1.0332249102,-2.6596158199,-3.2451358018,-2.3328623784,4.0788483248,-0.125954862,0.2627399838,-1.1483023181,0.1478498642,-0.3520300982,-7.3565880725,0.6635992163,-0.4715888769,-0.1853673059,0.2010395391,-2.8172844689,-0.4849264064,-3.2943657247,3.4247924374,-0.438318494,2.6883970791,0.1208871442,-2.0114326979,4.505082031,3.3192712052,45.1304564044,2.4302002264,1.2197333237,-0.4544870889,5.0984849552,-0.660000074,0.7553766462,-24.3377969353,-0.3011362878,-2.7340362018,-2.8226148382,-0.0434861905,-0.4666485072,4.4362863642,-0.1683575341,0.2825226839,-0.2436345905,0.1554310917,-3.2744311344,0.1509766017,4.6517906351,0.229791514,0.5503676596,-2.4892024785,-5.1556008124,0.4867238095,3.6761568533,0.6455329246,1.1878447371,-0.006391931,2.7664814353,-0.5256315338,-9.424900349,4.0168149707,4.2233432914,2.3869695544,-0.0496586694,-0.1554065333,-0.5681426922,0.5530746619,-7.2687848788,-0.1641869199,3.4487742222,-3.3098422325,0.7246422008,0.6887176354,0.0074642861,0.2111359349,-3.209227824,0.477604761,-0.3681444989,-0.6442919792,-0.5988111894,0.6899251635,4.7710739556,0.6702299545,-3.0310434348,0.4778594848,-6.1079191645,5.8514312851,-0.1024859979,3.5303137434,2.5902406693,0.1002390957,1.999476077,-1.3049109323,-0.2323754782,0.2980260482,-0.0101575764,0.3302531618,0.2878803312,14.6200512284,-2.6927120646,0.4502314306,-0.3591413999,0.5218744244,-0.5782446228,-7.4112306683,2.2066820172,-2.25171397,-0.4214932486,-3.5709234491,-0.2411384662,2.3890007483,2.2407241767,-2.343172376,21.2832010586,0.5389380734,-0.2999601805,6.4694341329,0.3596446861,0.083469109,-0.2186487081,1.7300239509,0.7741522945,2.7888236058,-4.3246206089,0.0581272062,4.8550191216,-4.0360840439,-2.7530558001,2.8700218186,0.9048085368,-0.9220699687,-5.463018738,0.3602435885,2.4103705152,3.4173144323,0.4439625588,-0.5664234128,-2.1689712216,0.5887529998,0.2155055456,0.8942979537,0.6405462975,-3.8352189257,0.0750750847,0.1347734536,-0.6448274237,-0.3647051835,-0.1543173655,3.1861807031,3.1141173421,-2.598516749,0.5937329182,0.6225159749,0.4547248157,0.4356613328,1.7035445186,-3.6133106988,-0.3582592114,0.3888139931,0.1776379431,-1.0883283035,0.351971725,-0.4623267805,-2.288678468,0.5492583606,7.9481316252,5.6290054395,-1.3822128415,-2.8280660681,-5.1118370082,-0.2609301796,0.1053316509,-1.9713490276,-0.3564377035,0.9214232828,0.5171071047,-0.1612029385,3.6362810345,-0.3538109905,6.1385644873,4.2550660684,-0.080563069,-4.1526929456,0.4885238814,3.4895138514,-0.0632094145,-1.7002484449,0.4043076573,-0.3220591383,-0.4551845228,0.7728824074,2.3926431021,0.5049456504,-1.0931315079,-0.3654454498,0.1684211249,0.2401488152,-0.115788406,-0.7193692156,0.575884313,0.7258857473,0.610967149,0.1551788342,0.6464531238,0.5939599277,0.066158242,0.0182782521,-0.5131157884,-0.3450526661,-0.2934857201,0.6177530816,0.766046901,-0.4103303937,-0.3312608675,0.1837594038,0.0686223559,0.6257057735,0.5159859007,-0.003627169,0.1658022798,-0.4441169167,0.3061918493,-0.531953002,-0.4898748012,0.131453212,0.7536084473,-0.3199301841,-0.46500933,0.3282159131,-0.0418783426,-0.3373017616,-0.7504565706,-0.8214225282,0.2286672718,0.0038228483,-0.0920584948,-0.0210496245,0.1193355142,0.521727613,-0.259675766,0.2416630261,-0.0387651577,0.7205455133,-0.1433131504,0.4803309546,-0.7950224148,-0.1809304155,0.6852433959,0.8198789953,0.5735670892,-0.1943435118,-0.2214302275,0.4484097427,0.9784764644,0.4892821733,-0.126358028,0.4365063555,-0.3528847329,0.7284847071,0.5046287657,0.5624314305,-0.6249135157,-0.2261490182,0.2414293338,0.4705537237,0.8691483753,0.0258470176,0.5173523826,0.4695342904,0.5405483333,-0.2888177982,0.5573166217,0.5632454185,-0.4268008383,-0.5505423434,0.1180064059,-0.4016234153,0.1640531552,-0.0680793742,-0.214057368,1.0890066493,-0.9427881024,0.0004938905,0.3291561265,-0.394309702,-0.6311541539,-0.3101104501,0.7775181447,0.0610969571,0.5745420426,-0.6630964642,-0.1244297208,-0.7860112941,0.0668492752,-0.0210502273,0.4332829984,-0.4841029046,0.3924413182,0.4000627369,-0.8431529668,-57.8910195483,0.6323499068,0.2721142402,-0.1782634055,-0.6113104915,0.4569327319,-0.3354313351,-0.2430917077,-0.1976959246,0.06004863,0.2652602716,-0.0764619734,0.0585817763,0.6226296497,0.3486958528,-0.0865355084,1.6425199161,-2.7913510758,0.0259278096,-0.355234566,0.206100538,0.8312158937,0.269211297,0.9062282944,0.473503548,-1.3200855947,-0.0020589698,-0.5565295255,-2.0173341696,-0.5843663204,-0.3079491675,-1.1668481165,-0.1102573296,-0.3447056359,-1.4668599009,-0.0285905308,0.3011131257,0.103593886,-7.2424600917,0.2046291155,-0.8052113954,-1.4465861463,0.2360478865,-0.7646263006,0.4101072548,-0.630551393,-0.2000704146,0.9329966685,0.7465960644,-0.9976632386,-0.8118628165,0.0616720579,0.3880326726,-0.3080525049,-0.5126095534,-0.4415577836,-0.6177549563,-0.1230187809,-0.4453501277,0.4190539599,0.167806407,-0.4601697953,-0.8802006641,0.2655807991,-0.0098719486,3.7287646234,-0.4766016612,2.4788202757,-0.3753770547,2.1641845114,0.3160909256,0.7422328368,-1.5624858288,-4.7931354667,-1.6832841628,-0.7488747249,-0.0203653126,1.6893582271,0.1783115493,-0.4049301008,0.3958733508,-0.2842424236,0.8433301674,0.1190556891,-0.0960896234,-0.0813707594,-0.1535546449,-0.5119213698,-1.0008114528,-0.4455443515,0.9689231166,0.6020377301,2.8397277158,-0.328831136,1.0239996302,0.4471193687,-0.4447599708,1.7959841932,4.2854296079,1.4722630995,-0.0478958776,0.4214508653,0.0976694032,0.2255254225,-1.2462201117,-0.5942787377,0.1806110323,-1.1009535428,0.8424123967,-0.2029863874,0.4579673156,-0.0365946898,0.4213694879,0.2087298535,-0.4636666299,0.8114632046,1.7537035983,0.9251105891,0.4573071536,0.1936114593,0.4319582344,-0.1667670459,3.7158297855,-0.3078139597,-0.105345586,-0.1661703918,3.6616794806,0.9859027994,1.0666753159,4.5061255204,2.1590700511,-0.0916153964,0.2479544124,2.7316334403,-0.0294926974,-0.0692387327,-0.2120027219,3.1214910858,0.629998677,-0.0545546355,-0.5419286962,2.2125937325,5.925318358,0.7510280463,1.9122109559,6.8150391444,-1.1337876159,0.6848017102,0.6497205275,-0.3876431751,5.2065128491,-6.5223362809,-0.6133064991,3.6372380072,4.9375065383,2.8231769714,-0.0151419635,-3.1326246214,1.7515066827,-3.952710179,-3.2303649046,15.0453527919,0.8319535442,-1.9775744449,-0.2291204493,0.5147932956,0.6124724016,1.5103436124,0.2343662857,-4.7542311867,-0.5115386461,0.6692298234,0.5525181328,-4.0577792517,4.810590292,0.9181004952,1.4847684683,2.0234756462,0.6399597901,0.7177078981,-1.7483904483,0.3147983034,2.5552174177,0.82390516,-4.2246806426,3.9208969898,1.0093757755,-1.180271414,5.7648617048,-2.4716871704,7.1729921298,27.1449296238,0.4014840429,0.6833830651,-0.3989646742,0.995613596,-3.4942189141,-0.4628471693,-6.0915751222,0.4875685418,0.799342109,2.8604392612,-1.7851752846,0.2315236588,0.9173963299,-8.5799618454,0.0336513152,0.141071512,-5.2762504481,-2.6988460255,4.7794310951,1.3288469135,7.2239979126,-3.5004859095,1.7529827477,-9.8627219159,0.7954042298,-8.7843403133,0.0288748619,-0.2027022311,11.7774726757,-8.8442817809,6.1977605698,-9.994383861,-9.2425327819,-6.0809868751,-2.6983296312,1.4564447216,-1.5934136393,-20.2617943576,0.8846797911,-0.539230276,1.062708542,-0.6810494454,0.7971749909,-1.8902130704,0.730476948,-0.4462423764,1.055037376,-5.2628537344,1.2258559467,6.1523937481,3.3701594725,13.5213872788,-2.2681323836,4.3861652763,16.2332158905,2.9203718535,13.27713352,16.2329793203,0.3685467676,13.7843259828,-0.2393259347,4.6441673286,3.911370562,3.393183778,-11.2545186898,2.6172847778,5.1905226965,-25.4719361229,0.2950813086,3.0496362905,11.3353008197,1.9383536946,6.5494886182,6.9401414589,0.3961800589,7.1046133532,3.500730559,15.0952512495,-8.615859903,33.3589536946,-2.7864707507,0.4526810293,-0.0538660324,0.4586495607,-0.6310289185,0.0771658198,0.451869207,-0.0858756274,0.2862840129,-1.5157919795,0.4308208286,-0.2322344838,1.0093154424,0.8196021368,0.8884845011,0.1530765937,-0.3393650363,-0.1013446965,0.0745720566,-0.3583650411,0.9455531777,0.0970209971,0.3158299131,1.1120552968,0.3030077683,0.1640509117,0.8797409343,0.5612460121,0.4198495115,0.3459571921,0.2741555005,0.2262202334,0.2110642519,0.3659458087,-0.5091139062,0.5058373043,0.9539138714,0.07838613,0.8177063842,-0.0091360493,0.4248483507,-0.3528908035,0.5997635872,-0.8731502619,1.1014679321,0.570531446,-0.2842591236,-0.5003246608,0.658254831,-0.1418527924,-0.1337744499,0.0853597268,0.3209272457,0.6605293117,-0.1752371475,-0.0081392463,0.2736179219,0.733755534,-0.4861822095,0.8087141415,-0.4378813641,-1.3173866605,0.4758944301,-2.9358824032,0.7393643219,0.5838595741,0.5295226582,0.5739927942,0.2604368225,-0.1609615476,0.1634163134,0.1418107566,0.1938922517,0.0977510753,1.8612286126,3.3658492587,0.9196457844,-0.2026880693,-0.2949885524,-0.4252845124,0.5251293878,1.9111274214,0.4531095289,0.7056725168,0.1119124643,0.4783287832,0.6825914781,0.4718396158,1.2505186745,0.5769763194,-0.7331044166,-0.0864737381,-0.2586424202,0.1437506383,0.4723407263,0.3253483545,0.4281511931,1.7817366779,0.0535699912,2.0383913961,0.22018472,-0.116377625,0.4539548698,0.0538329914,0.2291551119,0.7918968342,0.4678328718,0.0942064729,0.7312287611,0.5493490466,0.9827931654,0.4307347092,0.7499974957,1.1863884445,-0.2291706583,-0.1073211675,-0.3254484077,-1.2563510851,0.0851388363,-0.0804470444,0.6588879146,3.5905411586,-0.1153521719,-0.8018044595,0.4613441083,0.0223250878,-0.0745572513,0.6228263062,-0.6186642397,0.7390347905,-0.5166355234,-1.3839583947,-0.5761256904,0.1634097285,-0.2021746115,3.1885828023,0.7046631333,-0.3206403968,-0.2879308792,-0.5493696971,0.4199426701,-0.1300757177,-0.461606308,-0.3000253509,0.4216297064,0.8681337662,4.8646816971,-5.0360555936,-1.8091789614,-0.2869298707,-0.7078193682,0.918880036,-0.4779075671,1.2429584938,0.1447482808,-0.7152612582,0.0195308982,-0.2781680465,0.0593141807,0.9750351255,-0.3245823506,0.1340616475,1.104812648,0.7057390105,0.0794802955,0.151593793,-3.5282563771,0.1116394747,-0.0725514137,0.1002127611,0.804006005,3.5154844688,-1.2988519149,-0.009163158,0.0129817194,6.586987569,0.6146508398,-0.2403261342,0.1704673708,1.2839066554,1.5991320498,7.7937701637,-0.0650306238,0.0880063368,0.79040596,-0.5657525694,2.8725960714,0.4852053777,0.1527851341,0.9926182897,2.1022297559,0.3881093594,-4.3500450101,-5.0371713276,-3.7161950762,-5.4275530931,0.3704143594,0.155214496,0.247635249,-0.0797693105,-0.1526922316,0.5483147909,0.0840278311,0.323374255,-0.7264745052,-0.1448579002,-0.8741452157,0.1243915445,-2.0098647792,-0.2835883201,-2.0533252713,-0.5912472209,-2.9559586226,-0.5737302252,0.5229069108,-0.8540756752,-0.4496163735,0.2271980095,1.1926318291,-0.655415238,-0.5403609998,-1.9605633971,0.9716401558,1.8366006277,-0.4690982196,-1.2194420467,-1.1288333095,-3.7827200862,-1.1986559463,-0.1264353535,-0.2693151244,-0.9708965512,-0.0185235663,0.3994638228,0.1474396564,-1.0882061669,3.8677330584,0.152148856,0.1214654496,-0.3287254236,0.0722364038,-0.7272438626,-0.5183922764,-0.2794019661,0.1552380564,-1.0491203027,-0.7202598851,-1.5198477272,0.0310741606,2.3592823845,-0.6724990825,0.176284877,-0.1159700922,-2.0321192699,-0.3099772127,-1.5330489035,-0.6517258521,-1.8070215202,-0.0545823885,-1.1709467699,-1.9984346537,-4.9217223387,-0.5745315687,-1.0834255631,-1.0729528135,-1.1174287361,-1.3732485738,-0.5407512441,-0.7900569731,-0.2059842274,-0.5027713556,-0.1257506832,0.0419703654,-1.3906979774,0.1505290073,-0.6911309476,-0.5368022582,-3.7364642186,-0.7459945366,-2.6699831663,0.8594510728,0.2038018704,0.9770897983,-0.0327217753,-0.9495666571,-1.333368197,-5.0839568998,-1.4702729831,-0.4595680616,-0.6923067032,0.4594289677,-0.835241484,-0.8096636806,-0.8492569628,-1.1995860457,0.8447804412,-1.4461984014,-0.4388991142,-0.5379581045,-1.0187057859,-0.0689411916,0.5889570735,-1.1339279838,-0.5000652432,-0.5525400472,-1.5635448745,-0.5226626322,-0.6385675768,-0.7948050984,-5.9854643051,5.4740625625,-1.0645647149,0.7578032862,-0.0237239829,0.2196041979,-0.5233393221,0.1437740734,0.1736333651,-2.5292423285,-1.0052791155,-1.2955100826,-0.514105794,-2.3402885954,-0.9228583024,2.3595658936,-0.074075136,0.1480826462,-1.7249515199,-0.8395836749,-1.1740608182,-1.2545391513,-0.4979113624,-0.1194123616,-1.159279999,-0.0311122877,-0.4803506036,-0.3218226317,-0.3157762422,-0.8822167991,-0.3844520341,-0.4938674416,3.1630392286,-0.2457025403,-0.8785750288,-0.7191107806,-1.3551430646,0.137757791,-0.096805236,-1.2865714782,-0.6135298887,-0.3083079257,-0.4656746596,-0.1884781476,-1.0863689623,-0.5538454303,-0.8368159996,-0.370711917,-1.877626626,-0.2586758776,-1.0221112381,-0.7347594813,0.5787280899,-5.2112390027,-0.7636972706,-0.9952665214,-0.5689092787,-0.3823181346,-0.2748607851,-0.5806465651,-0.1608888596,0.9974923917,-0.8722039317,-0.8425859919,1.2793269965,-0.3574975192,-1.0494008742,-0.2578591464,-1.2318281882,0.8245305803,-0.2039591944,-0.1242095999,0.5709549926,0.3081512696,0.7834975508,-0.30917359,-0.0570132648,0.0042162045,-0.8463522864,0.1146092513,-3.6496056664,-1.2742748034,-1.4382065502,-0.2939156403,-0.3710159343,0.0622832358,-0.6352494916,0.2621160703,-0.9198482344,-0.3722002961,-0.3634768852,0.3735224706,0.0805429903,1.9822104215,-1.7003830184,-1.4345207391,-0.3992424983,-0.5399452337,-0.199588568,1.0800493125,-3.6564574873,0.3987466322,-0.2016432803,4.8326101366,0.3494474869,1.0587115264,1.2730202672,-0.0421748811,0.0782566234,-0.8921107532,-0.4410009807,-1.6953059015,-10.7555254526,0.9147475163,-4.7092560323,-0.4731139212,-0.1059807502,-0.3986088211,0.3061886104,0.3455627237,-0.6030217165,0.8521651823,-8.3753660766,0.7345903803,0.0632976102,-4.39444857,-0.8516470964,-0.072347954,1.2115803615,-0.385871318,2.6701284775,-3.4790285678,-2.1227851216,-4.3763269551,0.0663062833,-0.0834907665,-0.3005295983,-4.7495954006,-0.2116792016,-0.8499610297,0.0982320485,2.3481599902,-0.8801957471,-10.8429805679,3.0200466976,1.3385146299,4.317882138,-0.7044518795,0.8479675227,0.6629390555,0.9490985936,6.0211951588,0.2629094706,-0.2463174206,1.5478499396,5.6451505128,-0.367536222,0.9217570761,1.6111747368,1.8967990555,-4.9887309635,-2.0328507362,8.7680620015,-0.0118051576,0.9095578853,0.7216191609,-1.3048192629,4.4219088621,0.3968444539,2.8116401954,-1.452274919,0.0840192906,-0.2352362209,-0.0554995675,0.8251821398,-4.5205397171,5.210594535,-2.4433363402,0.7839773401,-1.9595266129,0.6055261691,0.8225818805,-4.5615208966,-1.0911727263,3.1361634004,-0.3099999395,0.7970034297,-1.0083883641,-1.1784322717,-0.1499432651,-0.3682915729,1.0494250989,-0.4087781245,2.6517561256,0.4502465021,-19.7820791072,-1.1614172364,1.3751836593,-0.0118431799,0.2841635884,-0.5793367745,5.139433307,3.0973424488,7.3145677907,-1.312881407,-0.5603496614,-1.1188462386,-0.1065805832,-0.1288556758,1.8205903078,0.8211287585,3.8467894593,0.5519017574,2.9542928923,-3.3168353321,4.5271033759,0.3876779553,-0.6383987716,9.1307714169,-0.1754501983,6.9366054273,-1.3461606984,3.5003746052,1.7577780436,9.9525872573,6.1841401807,-3.6581972176,-4.189139159,-10.3511467083,-12.4241890663,4.0579998267,0.7532399468,-4.6894788688,-2.3242749611,-39.7076317894,-1.3973479261,1.1079063915,0.0730794863,-0.1332781031,-0.7316328172,0.1549693581,-0.7759519667,-2.38174759,0.0220991749,2.789052284,0.4696319228,-1.5829605109,8.2187416205,-2.7983013793,1.1811856891,11.7766502159,-4.1985456964,0.6587174233,-0.6748214103,-3.6786643078,3.1688787983,-0.0883591765,-20.4066011703,-9.4580022464,3.1081679218,-13.5257810604,1.3581387905,-1.8794133055,5.9724428848,0.278866145,1.4076185739,0.9938146911,-0.3370032168,2.3379796885,-2.1875933695,4.8003840187,-44.6454934267,-6.6606901789,0.7300467435,0.0390911033,1.1616179664,0.0031122136,-2.3485557747,-0.0722563042,0.4150678802,-0.1124389112,0.0996046414,-0.1561883418,-0.9429179568,0.7869784141,1.6616416084,2.4754821222,0.2812206683,1.3032865239,-1.6484247939,17.9309731302,2.3474142788,-0.0507542603,1.681403475,8.108534422,0.1468234183,0.5386314918,-1.3685030926,-3.4500102834,-0.0039009407,-1.5459756054,0.6161779329,0.2444297751,1.6563853586,2.8298261155,0.202430943,-6.5722458934,0.5401245141,-1.6961516346,-0.3963810903,0.1275595151,3.1141586656,4.5935560992,-0.0047426939,-3.2736313233,-2.3633465899,8.7435269809,-0.5501105628,0.3722028854,-0.2782210506,-0.2697935171,-2.497288772,-0.8097429445,0.9091754672,-0.1308637829,1.0757839398,1.0291693023,1.0559181267,2.0992414397,-0.0511856467,1.9249272264,13.4453776479,1.994640562,-1.2045036501,4.7391478276,-3.7718605737,-5.7852706262,12.2508945837,2.4838235679,-1.5690639469,-7.5681273899,7.5559198567,3.9031841917,9.841270162,0.8662125742,0.0625343622,11.0766817103,2.8845345532,1.2125851615,-2.018179379,0.6308317445,-3.3524703585,0.85845411,0.3398734851,2.3262503561,0.2317218198,3.5530913383,0.5146223561,1.1671002247,-3.1053812133,-0.123891245,3.938737599,-0.4241984977,1.9884571497,-0.17065207,6.697518624,0.6147842821,-5.301782322,1.3696736141,0.9090833043,-4.609444462,-2.111633779,-13.5987950611,1.1276669856,5.7084498514,0.6704881795,3.4320034506,13.5226659389,11.1644664202,0.9518161866,-3.0244924491,1.4211796399,0.8333963165,-4.1843497353,4.4816450262,4.5904995683,-9.1002330854,6.7656433414,0.03173275,-1.2652386122,2.5888901154,0.3081491806,13.3595626857,-8.0830811693,5.9090493443,-2.7434416544,5.9896415023,14.5180976195,1.1724696755,2.5399238087,0.9752690279,-9.6944952449,1.3520128873,1.8097677553,-10.8881457258,0.2985656048,8.183593014,6.604409547,1.8882337583,0.3222726887,-6.8606085238,0.2360197237,7.3625982916,-2.723432548,9.2518393772,-1.0976619884,-0.8877645544,0.9338971166,-39.1563431459,6.4424461537,-0.9554410841,-4.9635015744,13.0861756692,3.2769510713,12.1059818288,13.9153002235,3.4354747932,5.5908745218,-11.8995302344,0.217524953,2.5907796199,-2.7078156352,0.6054643491,0.2096468221,-1.0806537212,-6.9490110853,-10.887879988,4.7609356715,1.7391162391,-6.574043156,-4.1368614344,0.3304016424,0.8629169421,2.6377161442,8.5844965638,-0.4320618309,18.5553224259,-3.2231718303,-13.3526820351,-0.998479519,0.1565612433,41.8378592047,3.8180598661,3.571925821,0.7676059106,6.0686765541,0.0466491763,-0.8640335324,-7.6318894813,0.7057442747,0.8181741262,4.7349256535,0.7526803871,8.3770091539,-3.3683281728,-1.9931746815,0.5357523352,9.3834381872,-1.3228690066,1.8615614972,-7.6697341563,-0.146939982,0.8584562232,1.0226850779,0.9654540439,0.6896526195,-1.7645456905,0.4182983874,-0.1181376405,-0.0295910155,-0.0144862454,0.3978815531,0.4574556764,0.7890872681,-0.2860431083,0.2101885321,-0.6462591501,-1.4348097802,0.8722120592,1.0351834099,-0.2612130065,1.0533173067,0.0822573025,0.7296124776,0.2526835968,-0.4187622928,1.2274695875,-0.0873605671,3.1477522676,1.7870902219,-0.9139232202,0.1505555526,-3.6897191771,0.573967619,0.553526393,-0.1510172786,-0.4886550475,0.4743561886,-0.4820266282,-0.5412058934,-1.0101359288,-0.1282497791,-0.4385731998,2.4608020032,0.232197032,0.4213264038,-0.5987823398,-0.6265608145,3.2840741392,-0.7022351492,1.9115880358,-0.2323456129,-1.1311538695,-2.461339607,-0.6019587424,0.3400224845,1.2765624938,-0.2155128718,-0.2426450181,-1.3641154428,-0.5520745719,-6.4627888375,-12.9882693315,0.2396119567,0.8434982344,0.6703738621,0.3294543818,0.5677535895,1.5711122283,-0.4956044541,-0.6444400172,-0.1039972659,1.480062336,-0.8320065317,0.4929616082,0.274362141,0.0603311024,0.4015246285,1.3928257091,0.7028277916,0.6061646573,-0.5461818194,0.6975625291,-0.6436717095,-0.3974672966,0.0966750277,2.3766288137,0.8930020141,0.4539481774,2.3952989866,-7.8422927824,0.4367727601,2.2241074085,1.6335452322,-4.792935186,-0.3388832901,0.1522937193,-0.9417394293,-4.9130657146,-0.4296845764,-1.0480341597,-2.2850712651,-0.5270411125,-0.4025669619,1.6976807814,0.5459398026,0.1522370141,-0.0278910685,-2.0861919506,-0.0568940016,0.4096472534,-11.6464607393,-0.0191060535,2.1872870478,1.4410505191,1.0763540578,0.5067341774,-2.6253342017,1.67214718,2.2421859445,1.8443845332,2.6047369988,0.5437510893,-0.2434521415,-3.2364208769,-0.6793116651,-0.1013444627,0.6673406581,0.1183000849,-1.3284333146,-0.8831007486,0.8012940045,0.1983479697,-4.2673328393,-2.7840373091,0.2107409203,-7.1055178677,0.4793235728,-0.7873277372,0.3165427867,-1.0302077101,0.0803900782,0.5178885216,-0.9182647921,-7.662479035,0.8933834727,-0.2823438664,-0.2811216151,-3.1590983055,0.181051698,0.0769904581,0.5375013724,0.0062280038,0.7205917776,-2.9478812462,-8.4281458598,-4.0980150153,-3.8914090821,-0.5642070205,-0.5365962155,2.9051975813,0.2529034595,-0.4292806185,3.9388879735,2.1224061177,0.7640900185,0.5959844612,0.3594321742,-0.2182035353,3.948770665,2.6175568556,1.0740034658,6.433155563,0.5826365102,0.8417910799,-2.4325827236,4.0307753251,-3.3071122904,-9.8608349557,1.3922453187,0.1249458136,5.2970616388,-2.9794630623,-0.0492995056,0.805900929,-0.9828078752,4.9045879555,-21.7402465201,4.5345863587,-1.3025733038,5.0584389525,3.2039105007,0.3924585377,0.0935033995,-0.3267319178,0.1725774012,0.2356516292,-0.2426180599,0.300804193,-0.6648548056,-1.7484148544,0.5509428507,-0.6468682098,-1.143192331,-0.9980325304,-0.4576125025,0.0579348928,1.500903462,3.7764035518,1.8112148288,-0.2166330614,-2.7535666753,1.1767005612,4.8837457702,0.9220407536,0.6527408669,1.4700944368,0.3303507452,0.8833517128,1.4925515772,-1.1078078599,3.3937627731,0.3275577775,-1.2804502765,-0.1266473748,1.6794981803,0.4925231825,0.2827704862,0.1345800294,-2.9409267089,0.2755465548,-0.21276615,0.0730694709,0.9962665042,-4.1901235127,3.1598195684,9.27420052,-8.7281759849,0.8681388349,1.7537409311,0.1883062009,0.7652690147,0.589814163,1.2802285202,-0.1532852855,0.9663451577,2.4590246383,-0.5567471027,0.6432398098,-1.8550624435,12.7855060803,0.827469452,1.9163361779,-7.0915712531,1.1908902306,-1.7192248064,-0.288639439,4.8870663078,1.8718749112,-8.4198889688,3.2888495859,1.2485535383,-1.9202512627,8.6181053312,-1.870791537,-8.6237405259,2.7098166545,3.4396611328,3.4033247501,0.0134494976,0.722544978,0.390826622,1.9493182655,-3.7729152245,-1.047079541,0.000197846,1.7708205247,2.5138623373,-4.9263988847,2.3123672221,-4.0313303534,2.7975257412,-1.9890832156,-6.37824233,-0.7994330057,4.1585167239,-4.7747150931,-6.9669199542,4.8358871147,-11.2555288751,-2.5195421068,0.6921210976,-0.2270091353,-1.0022221508,0.6841948807,-4.3145343703,0.2308756332,-0.586278187,15.9386100284,-1.1386055867,-0.8594595203,3.4742759854,0.281451454,5.4754498641,4.3927971373,-21.420453045,1.2080524416,9.7754639038,-5.895632935,-10.714052083,-9.0514417536
   0.6070016069,15.9462649819,0.4474777349,1.7794176873,4.1432573844,3.0053601722,-1.0697590335,-5.7681941551,-0.0771957655,-4.1684031623,7.4992331873,-2.7001208755,-0.4665413108,0.5209549582,0.1420473589,4.8394627727,26.0946855697,34.9853998355,-1.7831845494,9.541654243,2.159655593,-0.8104503991,1.2683858203,4.149454213,-0.0708413025,45.2249268553,0.4277249975,1.2146466155,1.0494119634,2.9535141074,12.0936984318,-10.353978228,11.7841354131,0.0609985503,13.4039134415,1.4302843745,0.1486889254,2.7311041969,-2.7059865159,-0.623298298,0.9944469846,0.4889967885,-1.5139007337,-0.60201805,-5.4900606949,3.9567470949,1.5756469301,-10.9215871045,1.4890930541,0.0363142476,-15.0682984185,2.8662776784,4.8478740724,-9.3358867526,2.8280279899,-3.6795191693,-3.589057904,0.2255957098,271.3167450709,-4.5721983497,-2.7333058204,-18.3016461024,-0.6103764041,-0.4753199384,21.1430145449,-0.7683024475,5.2133846044,2.1868007814,-4.2548398067,1.8892787686,0.7283281499,-5.3719462284,10.8274558918,5.472861421,-20.9578184826,0.3098663831,0.6706258702,2.2523494423,-0.155570354,0.586783585,0.4484840929,-0.0582783493,0.6003032089,-1.1946875392,-0.6423577716,0.0307199046,0.2714723842,-0.0220308621,-0.2764310257,-1.121736541,0.1590818483,0.0699987927,0.0598235792,-0.0021953709,0.0878342337,0.0427374792,-0.7688517079,-0.9782267028,-0.9734043856,-1.0599828849,0.0948613294,-0.3575817074,-0.3481011332,0.1796480444,0.1698876173,-0.3157081044,0.2064076345,0.0912060518,0.3744816308,0.2640378941,-0.7428831589,-0.8814986188,0.0228555015,0.0420417115,-0.4014819847,0.3751809562,-0.0383969072,-0.6955893233,-0.8101594204,-0.6312532692,-0.5074961253,-0.010987232,0.0586124149,-0.4159183489,-0.1949505391,-0.0636756487,0.1059705813,-0.1590712542,-0.1583465571,-0.7337290412,-1.398943782,-0.0570922775,-0.1692510038,-0.4543310464,-0.0843899638,-0.6930535967,-0.5531949548,-0.2552572067,0.0319369011,-0.228281087,0.1376041767,-0.246163676,-0.145990697,-0.376949233,-0.5257253764,-1.1156994921,-0.3389454904,0.0626555397,-0.451186142,0.2778932125,-0.0229147938,-0.5565159751,-0.3945538384,-0.5444269898,-0.1760693662,-0.8864418796,-0.0591734931,-1.0758052302,-0.6152140545,0.1070221246,-1.0085543152,-0.1161669537,-0.2973917986,-0.9382293334,-0.7692458419,-0.1001656943,-0.1364735219,-0.3409520015,-1.0154471477,-0.2258262327,-0.6934206327,-0.3422824993,-0.5670996954,0.7568291826,0.0395437715,-0.3864796506,0.5153530329,-0.2281352488,0.0313731819,0.3116127683,0.4532747917,-0.2031201421,-0.5581151441,0.2714889778,0.1603299387,0.4939249718,-0.7421781324,0.3143877683,0.2147033126,-0.4953632341,1.7345295598,-0.3740531935,0.2676500534,0.4272226488,-0.6446763201,-0.5788333426,-0.3426646934,-0.1543572945,-0.1337757489,-1.1710525979,-0.1942314728,0.1348569747,-0.6334884483,0.0458353128,0.0505844202,-0.0485284934,0.5336088017,-0.4846003879,-1.1203152973,-0.8545607914,-0.0059490331,-0.7173974571,-0.1386019042,0.3252655442,0.0562865889,-0.485949325,-1.1920796538,-0.2438220015,0.0818744456,-0.4133579041,3.050178722,-0.0462633935,-0.6296713684,0.0368913796,-0.208693703,-0.7009226741,-0.6187967729,-0.9076329325,-0.5074780459,-0.2358861446,-0.3371548025,0.1970509413,-0.3819689542,-0.220763276,0.0489012958,-1.1591384631,0.0733957051,-0.5179150458,-0.1152232406,-1.184790366,-0.6587250156,-0.7203550112,-1.3114337687,-1.2408764987,-0.0684468688,0.1894584206,-1.1237113596,-0.0865588148,-0.4368700433,0.4256423063,-1.6898205514,-1.1522954097,-0.745850396,-17.8788118096,-0.5571735732,-5.3058816366,0.0938132012,-0.2209090756,1.212569599,-0.7016577862,0.0417366488,-0.2533478761,1.4399135693,0.355321928,-0.8159457115,-0.5118928336,-0.1696256288,3.1550939531,0.2546737249,-0.3317082928,-1.0048161863,-0.2263093499,-0.1097123897,-0.6471396965,-0.2482216455,-0.9070353046,-0.0235095863,-1.9786307021,0.1286691888,0.4802723012,-0.1633607842,0.1059584613,-0.7859922816,-1.6753870205,-1.438772133,-0.3167359893,-0.3066575692,-0.5783754697,-0.8000706405,-0.8244390396,0.0783157859,-1.512715435,-0.0207546637,-0.1685201974,0.0056733501,-0.4131694167,-0.8830318864,-1.0793988282,0.1203099118,-0.9355855453,-0.4189833916,-0.224825303,0.1223336713,-0.8788927242,-0.7869775507,-4.9866661816,-0.1722961497,-1.1885493397,-0.4476623526,-2.5910033291,4.5353187532,0.1434711703,-1.1395334626,-0.2018457896,-0.9305409109,-0.5822640549,-0.0295660035,0.5094046215,0.5557068377,-0.0481005382,-1.7202477109,0.0229108381,-6.4812636578,-0.6269304382,0.7609488026,-0.2875336626,0.7425959093,1.907783557,-7.0848797831,3.0592397754,0.9667910821,-2.5660864514,-2.5208438413,-0.3024410489,-3.5930175382,0.3576443078,-1.866090467,-0.6927505005,0.1156951364,3.3161058487,-0.2871104354,1.5456939812,3.9473425207,-0.5488967302,-0.9328901676,0.2041310481,4.8785482339,-0.4115908941,-1.0437763968,-0.9016159203,1.5050662055,6.0977452099,0.6940870791,1.9678767384,-0.0030811765,-0.8879732684,-0.5403905061,-0.7686491964,1.0200853588,-0.9215191287,10.2556989911,0.9476637625,2.0288009827,0.5783785181,-0.1626667911,0.2938252969,-5.1376919207,-0.7143580024,0.4459879908,-0.1272404809,-1.7002591479,0.6402203162,0.0125478913,0.4630371179,4.0314974281,-0.2792847179,-0.5232236413,-0.1104231426,0.6232170773,1.0508281373,3.8018084315,4.0434150939,2.732717607,-0.6800291421,-4.6645377414,-0.4847435348,-0.2958664465,-1.0607419118,-0.6637977839,0.9445982325,-6.4626016764,-0.9977512843,-1.0759976571,-0.0732869833,-0.5898414254,-0.794301099,-0.5397748948,-2.1542552347,-10.7316824374,-0.2649903183,0.9887505903,-0.8115541693,-2.3821709731,-0.8228403949,-3.7375423051,-0.6222313893,-2.6187015198,0.3937761791,0.0698045953,0.3721221597,-1.0810413454,-1.2325066919,3.5746793557,-0.0997067357,0.3582340431,-0.2361036157,0.6612757682,3.8089128041,0.4438210801,2.1289512496,-3.3649106183,0.1604688361,0.9414184636,4.4028410789,0.55245999,5.1691760068,0.4138262377,-0.5741330693,-0.7045941467,3.0143472528,-1.4748551736,3.630604234,2.0523609303,-0.9936620316,-0.4100488574,0.0195866656,9.4769715868,-0.4581617676,0.0716712722,-4.6636234369,0.0083368288,-2.6005346296,8.626439933,-8.0372910975,-1.6331082755,-1.0321942553,2.9505959626,8.3269444459,-3.7815863727,9.9278370802,-0.5753415964,-0.1541712532,-1.5948713827,1.5719800333,-0.7152444582,-0.3976160347,3.9585520618,-0.9985633577,-2.5599158875,-0.9369819104,-2.1438444173,7.9756306476,2.7243704287,-0.321324262,0.5039426746,-0.5705321774,-0.5168166002,-0.1557249213,0.0853962511,-0.7726067057,2.1087283043,-1.0635364928,1.2824196213,-0.2734150522,0.2451192984,0.3313159832,0.3982726059,-0.3634909937,-0.3134953618,0.8167946853,-2.3555054689,0.9911710903,-0.5420586025,0.8501697131,-0.5214349583,-0.907820412,-0.5791725792,-0.3188292557,-0.4921445859,-1.0557535213,0.8922419767,0.7374351074,0.2530468243,0.0999886189,1.4061453224,-0.8182686585,0.6326294179,-0.1599803589,0.8327420522,-0.8493591655,1.3892941565,0.8745519718,-0.3827360022,-0.0467065832,0.1184453653,0.430784534,-0.051564097,-0.580505755,0.3773033996,0.7303482128,-0.6819694829,-0.2286003175,0.7966564589,-1.1520657519,0.4533794462,-0.2433257402,0.4387080561,0.4093710299,-0.3400857163,0.9089484996,-0.652776407,-0.0626471361,-0.413983039,0.7555798059,1.3395397121,2.5123790762,1.1151737041,0.4133520755,-1.34823438,2.225705015,1.2947871159,2.6877588314,-0.5808733614,-0.5071715751,-0.9392563875,-2.337681325,-0.8371067661,-1.339984772,-0.559951908,-0.2501719111,-2.0494272709,-0.0173880449,-0.7319374804,0.5083657456,-0.3704602276,-0.8945044727,0.0784063403,0.3472135504,0.3192178653,-0.1156440668,0.1182832201,-0.6305586745,-0.9353146611,-0.2722301742,1.3572098751,0.3956800108,0.6732935258,0.3517918959,0.6541846495,1.2447387832,0.5750413937,-0.0673426086,0.8405523586,0.0671729749,-0.9100734612,3.0317159143,0.3647825996,0.8583962671,-0.5207525654,-0.2760334758,0.1229597952,0.9563799996,0.6269874567,0.917942523,-2.320280072,-1.6596947872,0.7020126763,0.9285808832,0.1286113767,0.4266004901,-1.2504687652,3.6173694286,-0.7171273313,1.0229338729,-1.0026461331,-0.8344212465,3.1177770995,3.1738447112,-0.0949830345,-0.2038115505,0.7517556981,-4.5335935352,-1.0338807847,0.1290815149,-0.3239948975,-0.5256444708,-1.7510573682,3.905140631,2.033421199,-3.426722341,0.7193907126,4.4087339696,0.0512556232,-6.7090040609,-1.2197530863,-0.0408100305,-0.6866611309,4.4837698186,0.2943425944,-2.86854925,-6.1909830644,-2.9517473203,-0.1240904568,-6.0043219852,17.911471688,1.1302576498,-0.4920280294,-0.1950513271,1.4504848067,-0.5256267272,2.8096141814,-0.5106285648,2.114908724,2.3456743728,-2.1525851858,-0.1271140865,-0.3093155069,-0.3972844233,-0.0746333655,3.4839307283,-2.7304620758,-3.1240893495,4.0525411521,-3.1520112793,0.045036098,1.162202117,-1.0518471988,-1.9600381781,1.7615097518,10.4389654107,-19.0338718529,-3.5542097252,-2.0647817149,17.9482022575,-6.6361099077,2.0957056273,-3.6330028612,0.9987420164,-1.8201253948,-1.5708284315,5.4797228053,4.5142901852,-10.3004787782,-6.3297457913,-5.3108903028,332.2739915835,-10.815508595,0.5092503159,-0.9614289288,0.26105035,-1.1129911595,0.5075548105,0.695137493,0.4345941845,1.5570982659,-0.7088878243,0.1880171132,0.3394140282,0.538965102,-0.0941455522,0.1914482066,0.5900178022,-0.072708785,0.0866224334,-1.5157976664,0.0383725739,0.4476753138,0.649228127,-0.7174626655,-0.3036834328,-0.5743810297,0.7059687987,0.1545133038,0.0928927773,-0.0750440948,-0.0796656358,-0.5164222613,0.3162237927,-0.4252011365,-0.1844253486,-0.0845537252,0.5025062506,1.9391578333,0.3623163716,0.0252027156,0.6365992072,0.9685522137,0.6210841556,0.9614474214,0.5652616954,-0.2064318681,-0.3886430203,0.2600415098,0.1363739697,1.0760227951,0.6415610481,0.5760588883,0.5093117639,0.4563375356,0.2128477825,0.628038133,-0.1594128583,-0.6849015011,-0.4962815226,-0.2245057349,-0.1708597953,-0.2367404713,0.0743232303,0.1409461321,-2.6551230574,1.3320034394,0.1681302185,0.3595666935,2.132686811,-1.7936992263,1.3655622339,-0.4799169398,-0.5695749808,0.79105755,-1.3151380238,5.9460436621,0.7657322303,0.1862159357,-0.1246696914,0.4916735922,-0.0166442737,-0.3820871584,0.1239547157,1.6336457285,0.1020829585,0.2684570109,-0.040253265,-0.3652345105,-0.3420724995,2.4924873294,-0.7633068636,-0.3847056615,0.4162878119,0.7874617981,0.2930381186,0.4261252088,0.3319219941,-0.2810661141,0.8815428958,0.6058878352,-0.372381067,2.1223072903,-4.6496549759,-0.5155888218,3.3707498737,2.2171804645,0.9862518487,-0.3701177007,0.8001088517,0.6899242196,-0.6936492124,1.0102081165,-0.078414,0.1741316986,0.3742787706,18.8110022941,0.6316570153,-8.767949775,-4.1196720356,-1.5767808754,0.6207405624,-3.7175519369,0.571329893,-0.4075843491,-1.5375410295,-0.7709163216,-0.4592217262,0.2541421595,1.9740004965,0.4553209849,0.4525188031,0.8095468588,0.4927484962,0.0270844849,0.7074937196,-0.5310293363,1.1368943054,2.8250207463,0.9151835283,2.0000758949,-0.6078323788,1.0565831474,-0.6635294322,0.416581206,-1.1387703236,0.4687512021,-0.3338962393,0.7038362421,-1.8231250728,-1.712927952,-0.1179540873,0.6715012389,1.9466488912,0.7792724984,4.3303248753,-1.193955269,-1.6675115483,0.5001363511,3.9936178975,3.7195280868,0.0581212227,0.6030844549,-1.9187005896,3.0328405504,10.5366303302,-1.8221611758,1.4070354677,-2.25616913,0.4160519138,0.6357502645,16.3868675101,4.0732335278,-4.3174859658,-2.6194406348,-3.0145053336,-2.0588595015,-1.6977932477,0.2917654273,0.8431549617,-0.4469294464,0.6532252107,-2.226341905,-1.0237426198,-4.0620363676,3.5561949053,-0.099656449,-2.5504109621,3.7516217301,4.436730601,1.0968710439,1.8132643923,-6.4072118423,3.9104204597,1.0011511894,17.5442851116,-0.9534842772,-0.1139291551,-0.7272661016,-0.3905397405,-0.175736924,0.2062937239,-0.248320533,0.0332494557,-0.2045617189,-0.1746753256,-0.1819295965,-0.4126557755,-0.3104131934,-0.3608879361,0.2007713127,-0.1069369833,0.2307266313,-0.2408833675,-0.2691583586,-0.3716333617,-0.3929657415,0.181133415,-0.3391578197,-0.5004329993,-0.7000681247,-0.1815314179,-0.8319359395,-0.1802650818,-0.6613889683,0.1712363728,-0.0946552848,-0.8287835416,-0.3430010531,-0.5249853582,0.0981203309,-0.5269210863,-0.7960347374,0.1785629401,0.2834333612,-0.1027925015,-0.9226831897,-0.7148498985,-0.7622992548,-0.8117151151,-0.4644549298,-0.9082902978,0.3389728374,-0.3307642981,-0.6269209433,-0.5708474647,-0.4072499408,-0.8151992371,-0.0778796684,-0.7254061272,0.0431291836,-0.5006229232,-0.9855296879,-0.2603824999,-1.1989004758,-0.8522522067,-1.131303392,0.2310796591,-0.664292591,-0.7126654278,-0.9978981185,0.1503185835,-0.5491531452,-0.3280890656,-1.3159357226,0.1870265798,-0.2347429814,-0.2177644234,0.3228170076,-0.1074250615,-0.5838549614,-0.2139668132,0.2381832066,-0.8377109433,-1.1777065716,-0.6443483023,-0.5279150955,-0.792081841,-0.7604766957,-0.8479487546,-0.0064701243,-0.4121865924,-0.2488397085,0.1307740735,-0.5024952717,-0.3314723907,-1.3124281977,0.1391215412,-0.3975378777,0.1057176273,-0.4736032756,0.5790387425,-0.8007246799,0.0081169756,0.076775149,0.2555786314,-0.4879983856,-0.092529855,-0.5870312994,-0.7491694892,-0.2397976901,-0.4396142832,-0.7685457919,-0.069279821,-0.9521362358,-0.1358173738,-1.0953628057,-0.7045944372,0.0027597207,-1.0230349224,-0.8128715316,-0.5082677478,0.3592271779,-0.2898234566,-0.5283499996,-0.597705825,-0.7925463647,-0.5570653183,-0.8886815486,-0.7576638571,-0.4502368132,-1.0056924011,-0.7870810738,-0.1801441561,0.0637743716,-0.3678335261,-0.1687463583,0.1987477989,0.3617169813,-0.5047685022,0.0344390892,-0.7109192632,-0.1878378801,-0.6577380825,-0.3947756921,-0.7632324033,-1.1129415497,-0.8966984444,0.198011172,0.2610673478,0.2974415046,-0.440493453,-1.0154180855,-0.0858503729,0.0570720066,0.4603158217,0.163000543,0.081826951,0.0556244355,-0.8085236383,-0.4659889934,-0.7779770108,-0.3275144277,-0.7303438264,0.1259051948,0.1862922276,0.1878212289,0.2889352715,0.2364165139,-0.9256140822,-0.5313383934,-0.3353239713,-0.6843256405,-0.7592205977,0.1274903372,-0.4030625781,-0.0238979796,-0.3273254509,-0.5820230997,-0.6152555842,0.1518046339,-0.5193739155,-1.3229518311,-0.5384338157,-1.0380985942,-0.2891567794,-1.296869897,-0.3252675441,-0.32537236,-1.214736677,-0.4428492682,-0.367302194,-0.4001390897,-0.3794466713,-1.2726462295,-0.3155219445,-0.793298549,0.9582571232,-0.5879001955,9.1502218934,-0.6154341176,-0.8937937676,-0.5928584993,-0.6563544752,-0.8409992635,0.1301185847,0.363016647,-1.0828088185,2.6416901224,-2.4873929741,0.8076259835,0.7079524773,0.0801877703,0.3791047451,0.7460479156,0.9594224184,1.6983520081,0.4312920638,0.869522263,0.4018921493,1.4239755871,20.1872816825,0.8002402559,1.1806952411,0.7656777902,1.1353550471,2.8440953568,0.8709726496,0.5363862029,5.7208022687,19.4415670067,0.7451114035,0.3855048442,0.7101491548,0.9688631758,1.020667814,0.0533742407,1.0258651224,1.0569314052,1.9131004403,1.7776823337,1.2163078527,2.2471878812,0.4258544206,1.8723134297,0.6244323713,0.9540751294,1.0385147617,0.8612909149,1.5533655341,1.3902063528,0.1615267875,0.647115463,0.4145643335,1.0927610552,3.3006318936,0.6440826672,0.1723216994,0.4612579095,1.3949041839,1.0386592506,1.0426550363,0.6991539053,1.4504111787,-0.1228934678,0.531561097,0.9562179462,1.3146176658,0.3075848735,1.199429415,0.9290258452,1.2367670294,1.6356296441,1.0302772272,1.5679386011,1.4138877552,1.6159268345,1.6094035571,0.893622852,1.4165236567,0.9468997316,0.2773370951,0.7411202289,0.657565422,0.9185688072,0.8052613293,0.522080943,0.8144353718,1.6700648239,0.3215368321,1.6164758267,1.406356302,1.7096045003,0.8134578454,1.2485097305,0.7325980479,0.3478493236,1.6100318811,1.510384723,2.1475136426,1.6529066043,1.2956063277,-0.3263993158,1.6985652775,1.3321243616,0.283681765,0.8004926556,1.1381073129,1.3985921495,1.6602751548,0.5864108751,0.8970031397,1.450459932,2.0517756878,0.5661943187,0.8153561177,-0.7967937,0.3250255665,0.8182722404,0.852155629,0.5189248105,1.6631645596,0.4951697493,1.0290359915,0.2629495968,1.1953965181,1.0097793991,0.8224934823,0.2668709745,0.6966498843,0.8936024364,1.0457195638,-0.3121434132,1.3007897506,1.2066954321,4.2316973093,1.2591401014,0.8037488649,0.8397992331,1.7465787689,2.4994785885,-0.4302281567,21.2707552079,-0.1472558482,1.1833715173,1.0096316956,0.4584921809,1.8787532583,0.6091921025,1.6032129776,1.598354301,1.6881152574,1.5310416613,1.4087544755,1.8327545334,1.4782737422,1.342804339,1.6771018174,1.2110818905,0.7121815642,1.9546245254,1.3630298818,1.8092330376,0.6222176495,0.5553128423,0.6283757259,0.8797033591,0.9179479275,1.4643695563,0.9476301731,1.5453386936,0.802904099,0.7798925718,1.1985166609,1.7480342038,1.0126295198,0.6790461421,0.6901812408,1.2074016174,0.601683483,3.5952502209,-0.0738937895,0.5923083841,0.9397059222,1.698347895,1.4565995901,1.0324408379,0.5796681459,0.4113010788,1.5445789616,0.6472513566,-0.0096900513,1.0296524698,1.666800619,1.2601720996,0.5211277869,1.4928233614,1.4665609132,1.190539526,1.043564689,0.1414641684,0.7857602543,1.3765261948,1.1430768806,0.2865536131,0.7405261225,0.1081411317,0.3196678497,-0.1616161904,0.30719575,0.1371704682,0.3546390774,0.3817260156,0.1940139565,-0.8728162001,-0.446186218,0.5046238839,0.3551557482,-0.0836726632,-0.3100370073,0.1447395244,0.153827141,0.8972676726,-0.0102435108,0.0511470535,0.5065555732,0.0555176041,0.9309513069,0.0817850491,-0.352151575,-0.0537775888,0.3779001874,0.8942732452,0.1195784945,0.2573461815,0.4443164952,-0.384954305,-0.1417145128,0.9075937038,0.076715813,0.2336572263,-0.0191347498,-0.2759375953,0.3763533424,0.3264114336,0.8410502674,0.1670447755,0.7026601458,-0.732142952,-0.0066194724,0.1544642038,0.1545730875,0.1588993528,0.6316575892,1.5128247938,0.1348505911,-0.2763990144,0.7238832357,2.7066014824,4.6967404626,1.6497708017,-1.7613581741,-0.4422090534,0.2150567895,-0.6660828713,-0.5111626608,0.3116349162,-0.8027964664,0.49238227,-1.2080503786,-1.4891950124,0.4095638872,0.5228649302,0.8827836729,0.6902956237,0.2307457235,-0.4873003701,0.647107773,0.1154616939,0.8895317834,-0.7671006724,0.1623983396,0.0351608976,2.8434243648,-0.1648166675,0.9638177679,-0.3921437918,0.3222658417,1.3402926841,-0.1536936294,0.5358512391,0.4525841251,0.6532652411,-0.3421979267,0.1741801839,0.3962078598,1.5500414203,0.6637846999,0.1791435012,0.6598477469,0.4381388161,-0.290992619,0.0757412136,-0.6048964652,-1.1073623866,-1.3823913323,-1.9513894059,-3.3661466855,0.5761022896,0.7554637947,-0.147132419,-3.8418011918,-3.2069581971,-2.2493728274,-0.6602763409,1.8811054085,0.7727168243,3.8230548318,0.9674466075,0.3373910178,-0.3161668994,-0.9401774629,-0.0345626732,-1.0457986059,0.077052475,0.5275961282,0.7187192916,1.2497443073,-2.0083842297,8.9445768745,-0.0516516802,-1.4675250909,-0.511419625,1.1200705812,1.0287192969,-0.6802012695,1.1741435935,-1.8804259867,7.0203116356,3.8192905467,2.5779854558,-1.1830682892,-2.1664468553,0.0670264906,0.234333032,-1.3261662657,-1.6159535691,-0.1622524982,4.172450298,0.0022714304,-1.5877751922,-2.9821972552,-1.5958077099,-0.8616884998,0.0447132259,-0.1773853962,0.9799112547,1.732040598,1.4551480337,2.9779232631,0.9851930178,0.4307391032,0.304278279,0.2149055798,0.1054440069,1.1562312355,0.4126815728,11.1738681657,1.145539496,-1.8783645104,-1.6881937627,0.0108269744,-0.4175736979,-3.1821646471,7.0310756663,6.1268251245,-0.5814509081,1.4316357495,0.038905938,-0.4256462347,-0.9464141217,3.0952135483,0.5331516472,6.8269667947,15.2674907382,0.0191812173,4.4869103341,-1.1921530587,-0.4111230672,-0.8468597576,-0.8085266142,0.2305475292,-1.1095577613,0.4546422026,0.7176914775,0.1778357675,0.3983053776,0.3149568942,-0.1832892101,0.4605679631,0.6752821969,0.8389997579,0.7966651791,-0.4672884183,0.4172492646,0.0321634985,0.7740039209,-0.0446196969,0.46908042,1.026447374,0.1206490553,0.1410676423,0.1233450794,0.72431209,-0.0284075097,0.0713381285,0.2149033752,0.5041162109,0.3429241099,-0.2657770277,0.6390379818,-0.5788213116,-0.1099440383,-0.6069813774,-0.1620151102,0.1641404235,-0.1611855325,0.5298834357,0.6968116166,-0.2095619084,0.3910391638,0.6658366861,0.0157455241,0.7377769613,0.7653134683,-0.0839093722,0.2398549486,-0.1540183668,0.0836038318,0.8758161465,0.5643195117,0.8526299924,0.3929530085,0.4143146688,0.4529473667,-0.2747945811,0.5517771465,-0.3319920586,-0.7709525112,0.0087943062,-0.0813489377,-0.5025825786,-0.2944866916,0.4042928718,0.0083629299,-0.0208726492,-0.0638839453,-0.3633578491,0.3794738332,0.0782017805,0.6673914463,0.9355556679,1.3558012041,0.2920532967,-0.2111172226,0.0068745192,1.0428963009,0.6738765365,0.2207709567,-0.5192603487,0.2210367116,-0.1724301576,-0.4262218897,-0.3872204704,0.0584375785,0.9753593351,-0.3188516779,0.2381276242,-0.4943693422,-0.3813030113,0.4601921886,0.7201504014,0.1518430466,-0.5592782132,0.4821731647,0.1112060666,0.6386680155,0.9965796247,0.9194639264,0.3649370085,0.8360426826,0.5709463567,0.6174892349,0.0473106555,-0.3095475623,0.6797380908,0.3444903852,0.6697919049,-0.4368096222,0.29000728,0.85894329,-0.1399589833,-0.310052282,-0.2693791156,-0.1660381389,-0.5640819558,1.0820787799,-2.8871292422,0.607518964,-0.7007584428,0.7829815677,0.6420077199,-0.3222572721,-0.1856502099,-0.6404215974,0.1634800606,-0.3329785984,-0.2350798185,-0.2056547739,0.6401810648,0.4683970893,0.7705648347,-0.0184036986,0.1131242674,-0.4413079771,-0.2258083282,0.6843290174,-5.0284086353,-0.9565823667,-0.5070011544,-0.0543991808,-0.4021286932,0.1707084429,0.5401204809,0.3602277864,0.9271500995,1.0752762636,0.1220720425,-3.8702013786,0.0696250033,0.7811358869,0.1783112981,-0.880500072,-0.2147929289,-0.5619547852,0.672739029,0.3357203119,0.5584560784,0.2159051347,-0.7741184757,0.3673586202,-0.1698920199,0.5657890512,0.9243212052,0.1005549887,-0.3787446441,0.2304840322,-0.8795204767,0.5089213097,-1.1091957395,0.2093334431,0.2169138577,-0.6372099183,0.660072485,-0.1787775521,0.2268397479,0.4573025374,-2.6876618471,-0.4632186045,0.598524778,0.4304763398,-0.4134930992,0.8479877033,0.7560980716,0.5708386857,-0.1296888122,0.0491033206,1.1561449287,0.7241499821,0.4024860511,-0.0112439006,0.3877368265,0.6027537548,0.4729825053,-0.2634463735,0.4878095575,-0.3643371668,0.0710789197,0.4963901233,0.6040806848,-0.1228840462,0.8640452084,0.6584343521,0.5178895395,-0.2250832529,0.9796419779,0.2354340705,-0.9379246385,0.605667524,0.6494664969,-0.5527565418,-0.5570136485,1.7844419444,4.966684493,-0.0580017501,1.072573508,-0.1597042362,0.1890038685,0.3157195298,-0.0100956773,-0.092965516,1.0633333001,0.7147492827,-0.2936780192,3.423224115,2.7642930221,-0.5432026882,1.0828641574,0.7091043952,0.4848268137,2.0483775351,0.0010458037,-0.2041006091,0.7031320071,-0.383655072,-0.3569035743,1.0523050085,0.5002608358,0.4740996143,0.313893947,0.3351409861,3.1828088096,2.1675934641,-1.023985218,0.1294373343,-0.8468721768,0.2730914916,-2.4352822942,-0.301861507,0.8442403978,0.5795179782,0.2753773947,-1.5961874463,0.8664387023,1.5677490157,12.6372852828,6.605927828,1.4782617938,-6.8155363141,-7.7759826786,-3.792599862,-1.2401942729,-0.1150481668,0.7164747377,-0.4064674597,-3.4730542985,-2.5717459611,3.7822771143,-5.752237524,-3.654863222,-3.1109808974,0.9019109349,11.9670739355,4.7473082718,-2.5402121456,24.5511996616,-0.0425692297,-8.8090292639,-0.5874162677,10.3588407321,0.5874532399,-4.0498392426,6.6133851944,0.408817902,-0.3914850128,-0.4053076445,-2.7963475415,-0.4764735885,1.2847385944,-3.2597684884,-5.5298968177,3.5617642726,-0.7763320004,-4.1089155477,-5.6433340976,26.4235849443,-6.1173000765,0.246872343,2.2347639896,0.5259515351,-1.3429259662,1.3228733496,4.4794401065,-1.5011193652,9.7081188689,7.1257532033,13.3452590732,1.0018643572,-7.8342351691,-1.9764984254,3.7146957968,-0.6178171384,1.8375219293,-0.9318214438,9.2954336563,0.500485244,-11.1811814386,3.3275557619,-0.1560834338,7.1329473632,-0.742998438,1.340539529,-3.8399871456,0.2333399299,-1.0937280636,-6.1948869072,-0.4377414218,0.567218594,-6.8161724702,-1.6823420155,4.9425287911,-2.6691623728,-0.1353116219,0.3187763906,-0.2528409537,-4.0697379204,0.1132558849,9.8405251488,-8.5131572646,-14.9283994939,-3.5977610517,5.32230012,6.2828544412,-21.4922126164,-2.197941684,-1.7232112503,-6.747860766,7.2804753901,0.8088487895,-3.8319487054,1.8684033997,-0.4598097302,-1.4418182424,0.9714647752,1.8989572676,-16.1180483414,0.6282461474,-3.7593963367,0.2146903241,-11.9178505197,1.2514998924,-18.971312818,-5.7622887194,-3.9583772591,-2.4543259656,4.5041048165,0.3072907677,5.9623205614,46.8860012525,-0.7822825775,-1.6108169869,5053.0222293177,-4.9437831543,-8.813408856,24.3199645373,-8.2074639583,0.9285375518,2.9819307277,-1.0040123889,-3.722289076,2.104313043,-0.1100937505,0.6589665481,-1.778243306,-5.2813574648,-17.4187440366,-3.3616831849,0.2312059016,2.7711423631,0.522750054,0.0272978071,0.0203741404,0.9252822793,0.7301133013,0.6558800327,-0.1760507921,0.4687578261,0.3553204664,-0.2476968735,0.0460704426,0.4706311658,-0.0356624781,0.7127629912,0.0366450701,1.0725678851,-0.0141882138,0.167849533,0.3007550851,0.6923628164,-0.4079567727,2.4253973636,-0.4533342311,0.8599274012,-0.667219648,-0.3227319196,0.4036639107,0.0525417055,-0.23305858,-0.3544586749,-3.7109205919,0.7442196357,-0.212160578,0.3831722885,-0.0665910187,1.3552375601,-0.1971933756,0.6590146549,0.7804918615,-0.3244704168,-0.4142814542,-0.281792793,0.5636785639,0.2256640043,0.5825310949,0.6086589444,-0.6456968293,0.3629209296,-0.2044914629,0.1434364996,-0.5370191203,-2.6381707908,0.1926830304,-0.7716095417,-1.1642154979,0.3688483376,-0.0756009106,-1.1424885462,6.7635440132,-0.0409902508,0.9886442329,-4.4163176811,-2.6839064726,0.4991807884,16.5619612261,-0.3615908871,1.1131850707,1.0740139472,-3.7362964765,0.8534528676,-1.7210364773,2.1004979913,-3.1748353048,0.3666318454,0.0177636789,0.1017252926,0.7441808712,-6.7344694479,-14.9471234174,-0.4111648772,-0.7367248293,0.7982278511,-0.6890638322,-0.2169969257,-1.6330621841,-0.4191253383,-1.7272169352,-2.2726772987,7.8880925314,9.5670420405,0.3522981529,-0.7286840212,13.0523788909,0.4966096282,0.7140782871,-0.5512349374,0.731687903,-0.2023192238,-5.1066382558,-0.0992180438,0.2224018587,0.1677982945,-0.3261175516,1.2899336659,1.0439204877,-0.1487328022,1.3747151537,0.8073838365,1.0009733367,0.7327147344,0.6121587229,-5.8562163835,1.0389472567,-0.4506749544,0.1558450353,-15.2898487168,-1.8773596504,-5.2369395001,0.7562476943,0.7097689674,4.8203574163,0.1525382501,-0.3097381382,0.3336139943,14.5172811979,0.3414011801,0.939927858,-0.2938933671,-0.7750347919,0.0002621418,-1.1440477011,-0.8902718792,-4.7125116346,1.2397016833,-0.9617625629,2.1079785435,-5.5660341088,-0.1547530554,5.3758310107,-1.1639322895,5.9696520717,2.0155413747,0.6460106851,12.8221960479,3.0593617325,0.4915357855,6.4412415608,3.1435012535,1.8801214596,32.7226098416,-4.1673292453,0.5110074024,0.070399469,-4.7656015139,1.412063548,-0.7747391905,3.6347644585,-0.2221016254,15.0748281101,5.2508751223,1.8618193929,4.0871885265,-0.3140346155,-0.7927682968,-3.4951517514,-1.0807134165,1.484099123,1.085018817,0.8990601733,2.0946051162,26.3343297202,2.565283383,-4.083589594,-0.1351407433,4.460891045,-1.4194104774,-1.4623969944,2.7913255886,-10.2891434014,-1.7043759428,1.7705617526,-2.9693178936,0.1604362431,-0.7521221842,0.3131172537,2.3060545482,-1.8725831598,-2.2842375532,-0.431545842,-2.7657254987,0.5517155263,0.1558484587,0.3718920675,-0.4029309089,0.1157042908,0.2751331128,-0.1056927512,-0.2426222231,0.3032100279,0.1391111386,0.3211332585,-0.3495577306,-0.0318363787,0.4236351583,-1.5311720759,-1.1180148617,0.7665194233,-0.2650600561,0.6435392671,0.6365846235,0.2256612813,0.309681025,-0.1812599832,-1.2563735255,-0.9648948891,-1.2874500217,0.3793080056,-0.5423967667,0.0657134284,1.1275940288,-0.1673176242,-0.1071299286,0.6370292558,-0.5012933324,-0.3320185338
   0.4141942215,0.2839327168,1.2179542485,-1.0245860621,0.1491147392,1.1321645327,-0.2102735129,-0.3151627571,0.3284620718,0.7246385281,0.6980635158,-0.7639616667,1.0278158858,-0.1400962306,-0.1090697715,0.6849026671,0.5618713561,-1.0647841685,0.8787821923,0.305035388,0.459606476,0.3840157224,-1.0110456438,2.0505961583,0.6702687616,0.3350336047,0.5014993363,0.3674655981,0.3785579408,-4.7477569882,-0.0990050838,6.9508152761,-8.7885100525,0.7648805598,-0.1965376091,-0.7338440257,-0.4981739697,0.5553597201,-0.2675975834,-0.6357664996,-1.0448120063,1.7581432147,-2.4581081947,-0.3445025625,-0.9931998997,-0.7195359031,-0.4666214642,-1.9411392455,6.1675687231,-1.5605726863,-0.7717797033,0.573716215,-0.1347511186,-2.7912250174,-0.6390308588,0.5576488622,-2.5532261857,0.0573348708,0.7466724227,0.1899011151,-0.0319491875,-0.144201232,0.1784008794,0.9702964214,2.1159748205,0.0252690199,0.3252285068,2.5860419663,-0.2117440475,0.1901490221,0.031157572,0.1439682282,-0.210671707,-1.0667432244,6.0954548412,0.9407935381,1.5503692267,-0.4083772719,-0.9436398498,4.9597435045,1.6532508926,0.8519606836,-0.7194619608,0.7547451084,1.277154757,-0.0254152262,-3.796868028,3.2477117484,0.0280118586,-0.9546625776,1.0491810251,-0.4148035241,0.5758005861,2.147726154,0.6992645101,3.457581106,0.4098056374,-0.777349082,0.5269255559,1.7823734657,-2.8340437311,-0.0336123774,-2.9947483467,-7.43476762,0.3885950328,0.0291261072,0.7904870572,5.5919727904,-0.5923653084,-1.2652024567,-0.2343994528,-0.460029934,-0.8218714359,-3.3903628521,0.2794111728,1.1446316447,1.2459678927,1.1868194613,-0.5033761387,1.2681885787,0.9660375177,-0.2459594569,0.9784078188,1.4015592972,0.6481810702,3.0609375708,0.1797983142,0.9475658394,1.0446338221,-3.4269600116,-2.0205346657,2.2791250543,-1.0194767033,-2.1168873785,-0.9230544335,0.5225674083,5.8535134926,-7.2823966958,-1.1457897559,12.4314971256,-0.4728873469,-5.8262209187,-0.4757341255,-0.889989414,0.3180452241,1.0368300657,1.9630886082,-0.8840781137,-0.6023730074,0.6676558726,-0.4142590025,-0.3982765144,0.5012081399,-0.0673393335,-1.798717955,-0.227647054,-1.0907183,-0.7530115696,-2.6957618945,0.9940721924,-0.1510584878,0.9371340695,-0.9404866019,0.4974355708,0.124271718,0.5505441291,0.2024628004,-0.4680917613,0.887414864,-1.4491190664,-0.7788427101,-1.3839131142,-0.7473192559,0.629461988,-0.1877114806,-1.1813733948,-0.2986388207,0.1202752836,-0.1291246543,-0.2877817204,-0.2091911737,-1.2127554534,-5.4852400026,-0.227495273,0.2750699143,0.2035285545,0.0688624975,-0.8519470907,-0.0681445209,-1.0365271792,-0.797980945,0.3097619895,0.0378433604,-0.018974433,-0.1721487878,-0.0603700853,-1.3551422426,0.5865736452,-0.9646445363,-0.3909550083,-1.0333080075,-0.0881453985,-0.0245342794,-1.2545181774,-0.8211312995,0.6397851463,-0.8999295143,0.3766917948,-0.25866954,-0.767104038,-1.3399910699,0.6489269158,-1.1379770907,-0.0128334855,-0.5123484279,-0.0548910694,-0.582004639,-0.0383305061,-0.2297993392,-1.0781111542,0.3820395966,-1.0155391474,-0.2929155697,0.1298537505,0.2319230998,-0.0424634392,-0.1799168825,-0.9150107799,0.032128397,0.5650642998,-0.2539635717,-0.7554891448,-0.4759402021,0.1337601883,-1.4762252137,0.2627433724,0.0199898769,0.6028847687,-0.4437010358,-0.2951107534,0.419372637,0.7042434018,-0.1177259977,1.3146613618,-0.4742903839,-0.1882840457,0.6191086258,0.659905568,-0.2723184529,-0.28584416,0.2149371321,-0.6955340693,-0.1996853795,-0.1408697316,0.1527501967,-0.23483144,-0.6456048389,-0.380184624,-0.3512895727,-0.6029263421,-0.656177777,-0.7409043214,-1.3392276036,-0.5144102981,-0.3440512553,-0.5181523111,-1.2414338521,-1.0024809678,-1.0490755834,-0.309465696,-0.6353710925,0.3711286132,0.3236713267,-0.9237733563,-0.1938154527,-0.9425687446,-0.690068621,-0.5916652214,-0.0494413932,-0.0467661373,-0.3814132694,-0.4091022568,0.4607405238,0.5713488614,-0.6742087843,0.8062073127,-0.5406876788,-0.3976238821,-0.9806821275,-0.7707878232,0.6164522247,-0.3312461498,-0.3594888778,-0.6210245118,-0.1337954285,0.4922686371,0.4495021609,-0.4930472027,-1.2038220025,0.4693546716,0.1455441921,-0.7892904022,-0.080320235,-0.179024714,0.2520243041,0.9134481454,0.2623328447,-1.3847829864,-0.3393080739,-0.3212429602,-0.7056539272,-0.6476126411,-0.1663521157,-0.8005882122,-0.4008075029,-1.5218950556,-1.196781995,-1.0681888313,-0.835345395,0.0455396758,0.3023129928,-1.1354781473,-0.8300886871,-0.3990021915,0.475107031,0.4396551494,-0.1221985761,0.1978742839,-0.0317910155,0.8600013249,0.2615600087,0.8775746412,0.1697724764,0.0513103438,-0.0478869723,0.3247978581,1.1140548945,-0.8498220516,0.4304371196,-5.9736114453,0.3177915022,0.2099838516,0.3138502481,-0.4820308281,-0.6077414183,-0.0640822996,-0.8400607043,0.6231713061,-1.0142736922,-0.0366425802,-0.0192230878,-0.385227977,-0.6584713065,-0.0570055309,1.2201832627,-0.7523856601,-0.4715195716,-1.0233415618,-0.1167951232,-0.9407490724,-0.555750286,-0.4121567319,0.001537966,-2.3995722355,1.6209528452,5.6640456059,0.877553147,0.521053434,-0.3515493856,0.2567963886,0.938579659,4.9756106882,3.9116005401,2.122595707,-6.2417301606,1.9994433138,7.9844905016,1.2335538686,0.3925407252,6.759088776,0.0440761564,-1.5843449551,-0.960447403,-6.3481884442,-3.25756047,0.7575722616,0.7973040214,-3.0807729824,0.3390292093,1.0267177222,0.082550865,-0.5455754641,0.3247839376,-1.7403910642,-0.3723357806,3.6635661244,0.8343881447,-6.3513804189,5.2485806789,0.1159367688,1.3383320737,-4.8068451327,0.7112659405,0.498356875,10.0448784716,1.4975162598,0.7919188026,-0.2899608077,0.6038447453,2.0230448809,0.4523283368,0.8591193396,2.441169191,-2.227119785,-0.9827651793,1.7010794838,2.4040389653,-7.0981767681,0.6309828944,-0.5121588534,6.9867689095,-4.1571678528,-1.4893721378,2.3119605102,2.4389720245,0.3525888701,0.0423467583,2.7854762109,2.6559360233,-2.8290913337,-3.840505021,1.2019180847,-2.8246927899,0.8099661131,0.808241574,8.8387703215,2.0618407345,2.0395298094,-0.0611799543,0.5359199896,0.4474429392,0.2447978511,0.439274185,1.0210008176,-0.2912954593,0.3149940159,6.5236601362,-0.4385234073,0.1694612094,-1.6310878741,-0.5048378856,-0.7053680016,-4.7010130553,1.5819194563,-0.6343795108,-5.1119016328,2.0784264567,-2.8220215111,252.2262454339,-9.1771877628,0.4189974521,2.1650731808,0.3651067885,-0.4154170241,-0.1860693789,1.2422867251,0.7231757397,0.3470489016,6.2496557534,-12.1259611688,-17.8977883017,-1.6895143729,1.8487777128,1.3743056347,-8.7360281689,-1.0787253935,-6.4739018389,0.5293405711,0.5189674685,-0.1987265478,4.7037001547,-0.6138772026,0.7984668255,0.9105636379,-4.1959136145,0.0872024981,-2.1530085317,0.2677647025,0.4510392773,-6.8605726117,4.3461537297,5.578120882,-2.8246487026,-3.5968055334,0.8635326029,-1.8736413325,0.3346556923,-4.1625674025,-0.0491757451,1.6959590911,-1.1247489069,-0.2986234663,1.6260302653,1.0621297971,5.0915214458,15.3920769025,2.9650080068,2.7810200328,-0.0759431956,0.1480760653,-3.5382346259,-0.8121258802,1.6713815904,1.7623388518,0.7831333213,-1.8041061444,-8.0044514342,-19.0634359721,3.9840058373,0.7094548439,-3.9159956181,0.3260513199,0.8449537379,1.5194350178,0.1090624795,3.4678942051,-4.1942898161,0.9478476701,-0.0263427992,-1.4357081083,1.1804325849,1.1500772836,6.0616439492,-12.2088834433,2.1068447685,0.1028361841,0.7213841137,4.4499616455,-0.0595249122,5.4952595031,-2.6116444128,1.637471093,-0.7071481511,-0.2339518294,-8.6669163686,-0.0247523494,0.4835212473,-6.6799785632,0.5376912332,1.9242413326,0.3043351109,1.0796673559,0.5892998126,0.8707890237,1.0274428987,-0.0776895468,-0.2925782186,0.6737366144,-0.5368265759,-0.1571478615,-0.4384460047,-1.7765014644,-0.3830975809,0.2122902454,-0.6923508771,-0.2433685887,-0.324057209,2.5478599828,1.8936846054,-0.7777836919,-1.7746948537,-0.0136372197,0.8892443676,1.543066434,0.7059120413,-2.2789249059,-0.3476959543,-0.7223567005,-1.266663182,-1.0589538023,-0.3139288588,-2.8194937575,-4.1213743923,3.4230029137,-1.1174638826,-1.1914242436,0.7503949847,-7.6971318092,-0.4312341119,-3.6631200223,-0.8251267554,0.8632051925,0.5068387045,-0.1231175198,-1.0071116993,-0.6831202739,-3.2820540563,0.0402612323,-1.0732026716,1.0620539213,-0.1992122581,1.4300343259,-0.026889067,0.6572206677,-0.1395644216,0.1817368531,2.4408079629,-2.607947105,-5.2200014394,0.0825238157,-0.359339664,6.33013822,-4.6143920734,-0.1495958821,-0.9965228357,-1.789799265,-6.5475329973,3.0196960175,-1.0773680883,0.1630421516,1.0466125013,-1.055185107,-22.6908778462,-2.073723476,-1.0529401718,-2.0952854075,-1.9960331107,-0.8509027819,-1.3343389984,-0.8567753472,-1.3950667358,-13.1062591629,-1.7557240614,0.7506796575,-1.438188243,-1.1117648492,-0.4541660599,3.4534583798,-1.2530948447,-2.8308709286,-3.6267875104,-0.5278121423,-0.9054484286,0.1513885419,-2.4918245863,-1.7526508934,6.7108411888,-4.3383043484,-3.1922278128,-0.1622661728,-16.0338888991,-0.6486106967,1.6572311737,-0.6965276095,7.3765190844,-0.941650759,-0.8072711192,-0.0359593864,2.4438209191,-7.6817361424,2.2870170835,-5.5558571836,6.2251129915,-0.0290092859,2.6844259572,-1.3693127127,2.2807097946,-2.764797817,-4.643262334,2.8303146617,-0.2280610807,-1.6923726443,-8.3710481979,-0.9509365635,-3.4549080316,1.9616524952,-0.5369884465,-4.8768434791,-2.4096221279,-0.6220356029,0.1584049263,-0.4639988452,-0.5579524812,-0.1568993445,-0.605285299,0.2004147288,-0.663132346,4.3439626454,-0.1206353014,-0.5879844823,-0.2902329821,2.9498754576,-0.7082553253,0.1122961786,-1.0928785535,-0.8082235033,2.8464409509,0.4959404441,-0.5591635098,-3.0297020325,-2.961345725,-2.4633487443,-1.9389263279,-3.7886265227,-2.0554586316,-1.3933410207,-0.8746876342,3.0669102634,-0.2423584022,-1.3907418286,-0.7604854554,-3.6904366151,-0.7588098,-0.0134121291,-3.8399409158,-0.9296298448,1.136217,-0.6105840116,1.002395456,2.66341663,-0.9984521502,2.5584555056,-3.1728244377,-3.0271421526,-0.1160291089,0.1524925694,-1.0492019992,-0.5908158536,-0.8330034133,-4.4234208699,-1.7861986759,0.3720155326,-1.0395929679,9.7280536063,-0.6289530453,5.2779839486,-0.6667436813,-1.9061271668,1.4658790476,-3.0407298212,-0.5960839653,-0.2203491953,3.4038373387,-3.2305243265,-1.2284869671,-0.9946628357,-3.7725284456,0.3249095071,-0.9445371478,0.2643450781,-0.6107009538,0.1179813753,-0.088280256,-0.3821014612,0.2703343688,-0.0451791449,1.6226980489,-3.0745761136,-1.0609343246,-1.3167576533,0.9295938741,0.1502116054,-3.3718756942,0.7679753132,-0.5966870582,-1.0640250221,-0.601232221,-0.005728658,0.2338141727,-0.9162380324,-2.6879011074,-2.4646226904,-0.6081818846,-0.5787154655,-1.8904445594,-0.4588439795,-0.5846008362,0.2039244367,1.8870953025,-0.9546185367,-0.9909896326,0.1022960744,-0.1841261203,0.3547244254,3.3140038479,-0.278166421,5.1185564654,-0.1747028714,-0.5352010368,-0.1300370138,0.6341803956,-0.988832426,-0.0282968812,-0.452401778,-0.1849448606,2.5874733551,0.0127216962,-1.2232584732,0.2494395475,0.0984965884,-2.8970162246,-10.003209274,2.7337436733,-0.2420403215,3.0298590462,-7.8125180482,4.251420666,5.8394772921,-0.1623675132,1.4381138256,-0.4220648188,-1.0021421138,-1.0004836089,3.0624793095,0.4254269621,-0.9434819353,2.6901537773,2.2835491478,-0.3288575917,-1.2594693131,-2.7484032674,2.3578658456,-0.5390241884,-4.9154281535,-0.89370058,1.2805969684,-1.1507688855,-0.7231286241,-1.289726055,0.1057312064,1.61495023,6.2497257567,-2.4745532457,0.2637728017,4.8504486923,0.0362652932,0.2118643079,-1.2056317957,-2.0411567747,0.591313473,-3.0990764414,0.3264655598,-0.6981051974,0.9445519221,2.3356524301,0.789816766,-2.6567968955,-1.1075179945,1.8082015306,4.4202986792,-0.6045813929,-0.3891708476,-6.6601828418,-1.3966153541,-0.1033439869,-2.353519259,-4.7828172519,0.0018585626,-6.732992744,-0.7591490374,-1.513602867,-0.015908223,-8.2720199506,-0.8507536905,0.8589800164,1.315419403,5.4883224583,-0.5583836069,-11.2669812957,-0.6184050267,-0.3870166278,1.5456539365,-1.2088964266,2.302306284,3.3569891511,-3.1531339064,-14.5041559791,-3.5145865485,-0.488541315,-30.1718540911,-2.8769540109,1.3363208564,-0.6068497029,-1.9269746063,0.142853288,-0.2934136881,-0.448709034,-6.2411015417,-0.7973471996,-4.9873492863,-0.9503505205,1.0518157261,1.8374405878,0.8771033744,1.5464123986,2.0899013372,3.3336755229,2.422895113,-3.689554294,-8.0873994764,1.767925905,-0.4422984255,0.391029906,-3.4203841686,5.3547440532,-5.5847174827,3.3669247977,-2.2426619594,-1.4406547279,2.1416739406,-0.2581667409,6.4251264771,5.919274625,-0.8099125281,1.8718845524,-2.035735428,1.6677290561,-4.5394838143,0.1607883455,-3.5207029077,2.8211781518,-5.0781412114,-10.433436912,-9.3937914479,-8.3193797802,-6.840387346,0.4288198423,3.0782173064,-1.934949357,3.301676156,0.5672952258,-0.5259157893,0.2440898104,-6.2726440945,3.5952589376,16.1187016575,4.9587855499,-2.1611147435,-0.0497379067,-2.6316706286,-1.6239887343,0.0817055946,-0.9593183603,-0.4331240807,4.9054346885,0.0392177093,-0.4528252652,-0.4068008342,0.3527105206,0.3909223337,-0.2653654475,-0.3509481236,-0.0110461733,0.5224911984,-0.2623912212,0.2900929844,0.6214786914,0.2742541591,-0.0600927031,0.3859018317,0.4971874671,0.6497519367,0.4413862273,0.6766780742,0.1394250642,-0.2289231807,-0.3345051684,0.4484384838,0.8420989799,1.035075577,0.0553708613,0.3706106089,-0.8349227807,0.3994587017,-0.3946264484,0.0145610185,-0.1714953485,-0.2517860362,0.7535615127,0.653503845,0.6469443805,0.2506265401,-0.1373313918,0.0606821948,-0.4546386964,0.4815603384,0.0350905079,1.0630661778,-0.618585046,-0.3732626637,-0.5144509129,-0.6862657827,0.5493170667,-0.2446365931,0.3769375384,1.1671433708,1.0029495021,5.0164405578,0.1271430072,-0.6268248003,1.0660026003,0.1981249479,0.0778695066,-0.2321162023,0.4937074996,0.4168604273,0.3811814179,0.6950027626,0.1672434028,0.4080119548,1.1463698582,-0.6664716681,-0.3524128564,0.2944687232,0.3770672735,0.8748268839,-0.2388106655,-0.6751101938,0.0517507989,0.315765508,0.4983225174,0.769125558,0.1951614089,-0.2460843845,-0.2484777066,0.6111564302,-0.1134476054,0.1616225597,0.1077127328,0.4165213878,-0.3962948029,0.0227117198,1.12071775,0.5335027261,-0.106070753,-0.1571507479,-0.101552849,-0.3889193129,0.0007674189,-0.8384342778,0.0206252441,0.8236835977,-0.0655062853,0.1022431061,0.2330729134,0.5490161579,0.6814399899,-0.425819408,1.0532477029,-0.060804825,1.047461068,0.171832651,0.9389789882,0.7277234474,-0.2634371637,-0.5153683792,1.962425176,0.3715538223,0.0097175847,0.6371690596,-0.082457787,-0.0933734103,-0.1067108528,-0.6538700192,0.0570607248,0.9669921558,-0.3383901575,0.0326315098,1.7287175166,0.4804426832,0.2507542207,0.5605857917,-0.1300689695,0.4575357242,-0.3187732357,2.5555732689,0.6906651427,1.2126537705,0.6505119201,4.0840019526,1.0055668344,498.59480942,-2.7593098211,1.1733059684,0.5615542543,-0.1317103324,1.7686049377,-0.6402262134,-0.2946296626,-0.031508705,0.3070463264,0.3941975974,0.3218765283,0.4941102503,-1.1144271216,-0.6860307088,0.0005236636,0.1324030445,0.8830233532,-0.1839516553,0.9582607425,-0.4420756203,-0.4403919634,0.0999688253,0.9169855525,-0.037348548,0.3615619493,0.6491797007,-0.2890248263,-0.700315594,0.8308494704,0.2310197372,0.6861342743,0.7562510297,-0.5750151956,-0.5818241125,1.6205578418,-3.2375547019,-0.1077529964,-0.3439168989,-0.8733789869,1.069925237,0.6706186595,-0.2702187424,1.5797963861,0.6650974851,0.4845342515,-0.0492524437,1.7394679733,20.6406616434,2.3161551865,-0.2084918624,0.0233416234,-0.4339947007,-0.402133306,-0.215235632,0.1861750108,-0.0829226046,0.4577674287,-0.131365767,-2.5206586761,1.7840521802,-0.2110146926,0.9198043064,3.1171941241,0.2381148064,0.3622231551,1.6906834338,-0.9606062785,-16.3487186595,0.5828201079,-1.5056733296,4.2238708698,0.6911254587,0.7128395129,0.6689686701,-0.7629845995,-0.2649471635,-3.0940717483,4.2788971605,-0.3492596218,-9.1502005994,-3.3200141887,6.5981127719,5.5002889137,0.6837783825,-1.0778745281,-0.2770582662,1.1894596715,1.2794358811,3.1018275913,20.4702992123,4.0381162271,2.1799990385,1.1345577658,-1.5607692411,5.6747679731,3.4513411556,-3.6225247594,-1.1262585408,-0.3907781237,-1.3904467964,0.2541778908,1.7407662825,8.9831521846,3.121394633,0.67870552,-8.3095928084,-3.9752344615,3.7967923799,1.0361756501,6.9636193874,0.9131980795,-2.1539034041,2.8633888737,1.0159050898,-15.6319328974,-14.40339068,2.0993617889,0.8986582286,0.5510485085,-0.0188152258,-0.2471868606,9.7554897547,-2.9016098761,5.3827579166,0.0817282554,0.3383654891,-5.5423437784,1.4017573212,7.5464759916,2.5432103549,-4.2039787935,12.7754483593,0.6172390917,-7.6507182395,4.17102008,1.3036398542,3.471639251,1.7400854763,0.7370329529,-13.6382835772,21.6301015793,0.7616180728,-10.091581775,0.7964417593,2.0633289793,-0.8288343421,-10.3588256134,0.7683155432,-0.33060941,3.4199261867,-5.4515129653,4.1418439701,-5.551792192,4.6352798084,-8.9875779166,-4.1471375188,0.266725298,1.5222810361,4.4660061274,1.8917426223,-1.3971310385,-10.8873069124,12.8054620433,3.4462935308,-2.1939000765,12.0406142727,6.6582242698,11.5627317703,3.8664206596,0.6021510535,6.5912642913,-2.4231145344,10.3403262728,0.4857985553,-1.4595974407,3.8251713057,0.2916717764,0.5602571097,0.9534045216,-0.0439706431,6.1853461194,-4.2549822668,2.7082421362,-2.5262722346,-3.2875718219,-3.2583815354,0.1805237994,0.9821503399,0.3525137446,-1.6693858637,0.2309940964,-8.5272207466,-1.2876075963,-0.006510482,0.2749160386,0.3465506553,-0.2303590357,-0.8293749183,-0.4585547223,0.2036891842,5.2504862258,4.1286435698,0.8386727512,8.8067782552,-0.9389324624,12.6148046847,-6.3983729499,2.0152687194,-1.3524738256,-15.6189831415,0.3448024492,-5.2374314757,1.3109001786,-0.7796866107,0.4640265498,-0.1448597372,-0.4810570867,21.1370320956,13.2869272555,-2.4217911171,6.3812465072,2.7433839541,-0.4595234904,-3.8652367611,15.2662444499,0.9417122185,17.2871777838,-5.2243683746,-9.4830387678,16.8466867542,-1.4263067513,1.2484956903,0.5728336318,5.0984768445,-7.0530527979,-0.4075412167,-0.4694251277,0.6784323866,-0.471542163,0.6006091381,-8.2037173842,0.7226481254,6.0271905758,-0.8876243802,0.2303708526,-0.382188202,-2.6566731517,-0.0996197203,-0.3352853376,0.3791308161,0.5736027019,0.8580883565,0.4935414546,-0.4599123307,0.0206807542,0.0884439164,1.0261571393,0.8240391614,0.6676172604,-0.2570411066,0.0141673478,-0.1015548798,0.1815459147,-0.2048566778,-0.0316155534,0.6228479407,-0.309651115,0.7591485991,0.9119218666,-0.2885605843,0.1565334039,0.7782465433,0.095969694,-0.4951703671,-0.2427845116,0.4006996898,-0.5935693132,0.887074975,0.9524694146,-0.2718052885,0.2641762557,-0.4297663885,0.0730594807,0.8520428061,0.6680985358,-0.0309322126,0.0231155006,-0.2358507758,-0.5878162108,-0.4513738169,0.2776590308,-0.2532233884,-0.3485937715,-0.2791294446,0.2057625749,-0.173675334,0.4698954465,0.2373585764,-1.864970558,-0.4107079645,-0.1455178009,1.5950888753,0.1556549218,0.3586885729,0.4681476941,0.1878407261,0.308358263,0.2500753519,0.7001650006,0.2893480792,-0.3979601513,0.3770880635,0.2430689953,0.7825739166,0.1673022753,-0.2378823333,-1.486487088,-0.4547041044,0.0060946593,0.2015275806,0.4038813904,-0.6754909249,-0.0251293009,0.517801917,-0.3173006647,0.479829243,-0.2066962784,0.0447119562,0.356990588,-0.2854353074,0.3897458783,-0.9248005996,0.1734690478,-0.0782769893,0.5503999552,0.7452007794,-0.1518811353,-0.7984374572,-0.6071978128,-0.3293931637,-0.7575479019,0.6155350033,-0.6038173843,-0.0559487484,0.2484110385,0.5231018082,-0.8369633221,0.1183897956,-0.5924911995,-0.3130827445,0.4138993963,-0.0203551834,0.4216876695,-0.1945767712,0.4519420096,-0.4145890683,-0.5343136137,-0.6846626514,-1.7264589478,0.4025437998,0.0224309862,0.3395200063,0.8479897494,0.1682657685,0.3832021354,3.1866172318,-0.1107749429,-0.100613497,0.0727569093,0.9280653412,0.1847066418,-1.0044955561,-0.8966257117,-0.7549137376,-0.3208940191,0.3165623681,0.1066744809,1.3181089816,-6.542770157,0.0891626885,0.5701789159,2.8532495862,-0.973451131,0.9164536977,-0.8164093382,0.6280470662,0.1738209276,-0.0572737376,-0.2882344616,-0.944713421,-0.4123384113,0.3060752468,-0.1116588399,-1.5763545479,0.1436519294,-1.2911444731,0.190186227,-0.6585154461,0.2579402316,-0.7833212188,0.6805942552,0.2393088737,-0.4966744541,-0.3389403882,-0.8311403209,-2.2700898378,-0.9317345091,-0.6802395535,-0.4244609992,-0.2100271478,-0.6816597376,-0.6424157842,-0.1745357701,-0.1419067748,-0.5379951514,0.054177229,-0.3611849743,-2.8027396852,-1.2648620841,-0.5633103139,0.1447328678,11.5526144857,0.1060769157,-3.5013709445,-0.4612876485,-0.2707719906,-1.0443030707,-0.6484063164,-0.3624690384,1.5294290483,0.529034573,0.6271042761,-0.2445774492,0.3665925513,-1.9271171439,-8.8062758198,0.2383411873,0.3248867084,0.357206526,-0.5767369696,0.0334495852,-0.0818164801,-0.4102782885,0.7240557621,0.6796339863,0.7898075683,-5.4024690133,0.5315178516,0.742737581,0.2173982697,0.8704677468,3.0441359505,-7.2738016419,-0.4850638512,3.7400932018,-0.6812639651,1.3626164785,0.8578889243,0.491685336,0.8705058042,-0.5545602332,-1.0795909147,-14.906376545,-0.2468192138,-0.0776668619,1.8224963211,0.6265387664,1.400526378,-5.5485238077,-0.4477695276,2.467921708,-0.0436884241,0.9721889684,6.2839611799,-0.177765905,1.8659553842,0.12331172,-3.4628555671,10.543162524,8.7669682132,-0.4271734653,4.7486956209,1.0839750197,-0.7908548925,2.2047393404,-0.5651556302,0.6830116741,-5.9094790949,-1.5110498074,0.1243385971,0.1203543041,2.5653602354,3.6269740222,0.6886206694,-3.1564082566,3.8299129817,0.6523720902,-0.5045065878,-2.4729624375,-0.2892050919,-0.234854971,-2.6903362296,-0.1681174195,0.7118613109,4.7251724324,0.2465620339,0.6229362854,-1.4468436078,-0.3514173114,-2.4925002513,-12.6947857888,-3.9260958985,-0.4312430159,-3.5728092198,0.7918457929,-0.3725502502,0.2151585951,17.1377367795,6.906130395,27.9832421547,0.1573308964,0.1878289353,0.0906626588,6.8089721028,-0.4053305539,3.4079488671,0.0593035117,-1.8321332475,-0.3571095023,1.0744587588,-6.9545627158,0.0651670441,-0.2964325233,-1.708235842,-2.0069503235,2.885623442,1.4872470237,-3.2342952572,0.9941239947,0.9762705334,3.3974796508,3.842200779,1.7616846689,-4.1552731337,1.263598261,0.1098389126,-3.2435269522,2.816141438,-4.845325235,0.2088454579,-11.6110376328,-3.0308484402,14.8127126145,1.5738373401,-5.2412589536,1.1195345725,-1.6309554052,1.7052182709,-1.3286377729,-0.305105107,-2.3005191488,10.8008244844,2.7851564266,0.3002887962,1.4990189916,5.142964434,4.2134484534,-1.1492801889,15.8023330229,0.3240388267,9.4180377005,1.5621142331,12.1836052477,22.9994576806,1.9462356796,11.2642049837,0.1893357226,1.6510290502,-1.8346429191,-5.0072134968,-0.3673087629,10.8493846513,1.925394263,-6.8590746513,0.9790201151,1.9562189624,2.3608498855,7.3092506857,1.986332783,0.1588935913,4.4028133905,-1.6631094854,2.7276073655,-2.0387299861,3.313025636,4.8222022428,0.9685311354,1.0732491356,-3.9394151269,-1.21022545,-0.8840077601,-8.7766490161,5.7091113658,-0.5327771874,16.9221691992,8.9352299796,0.7484433845,4.1153341425,-0.8913268076,6.0336569352,1.4512730303,-4.625497514,-5.8427522169,5.0080648428,-7.5631189798,0.2993571422,-1.051220186,4.2934804507,-5.2525300333,0.9125213233,-0.2100767418,-8.0571514814,3.4304434902,3.1778503565,7.2382716728,1.4943693004,15.5536635954,-0.7175895342,0.5101133942,1.4811625641,-11.2682391295,-4.0064870147,1.8196025325,0.9849291196,0.5041019406,0.0889850207,0.3001888945,0.3571037189,-0.1409953964,-0.0109199678,-0.1189863984,-0.3774023548,0.3732343519,-0.3595948922,-0.8146095152,-0.4510904101,-1.3230056459,-0.4283471866,0.0751387601,-0.5091164847,-0.3925434781,-0.8725977329,-0.8091754135,-1.1231364363,-1.3370993132,-0.4027897738,-0.3455395084,-0.9526955689,-0.3829380744,0.0320581365,-0.5939516586,-0.2037615614,-0.1150635717,-0.3089664961,-0.6375775949,-0.2263508961,-0.8474637628,-0.5648856748,-0.6817584878,-0.0662962934,-0.0342828226,0.0686007281,0.1378569865,-1.0632625925,-0.0304498582,-0.1102970108,0.2349996953,-0.8726417747,-0.3215381882,0.1031745311,-0.3304765817,0.0923254301,0.3196592823,-1.1454422794,-0.9551330008,-1.14324923,-0.3533728178,-1.4618116132,0.0804797776,-0.8903344021,2.7347899603,4.7553205839,-0.7905542314,-0.6061202577,0.0821996572,-0.0604833589,-0.4166281626,0.2444010008,-0.1346156038,-0.0241639578,-0.4921132395,-0.196592775,0.1451480243,0.2517859647,-0.0611635254,-0.4398947876,0.2651254215,-0.3403867877,-0.0822605458,-0.9785003088,-0.8826179179,-0.0280209865,-0.1061309037,-1.4000550916,-0.0088145143,-1.0499910913,-0.0167066325,0.1539746879,-1.0073287068,-1.2457957373,-1.2807012094,-0.4854349686,-0.6361835967,-0.2941982994,-0.570912693,0.6905123946,-0.9111475973,-0.1812724559,-0.3090351152,-0.1048431967,-0.6507668093,0.4324518301,-0.5496516214,-0.9620846123,-0.2683603384,0.286374083,0.1263869405,-0.1298927102,-0.379252455,-0.1488361833,0.0825193749,0.1559603801,-0.6327795036,-0.2619959248,4.0862092788,-0.9409077036,-5.5468854018,-0.2900297803,-0.0951260414,-1.1411111381,-0.4190473522,-0.880096807,-1.1378245129,-0.0656163469,0.2810789083,-0.0362668001,-0.7083719036,0.1923128085,-0.1868480488,-0.5563176323,-1.228443928,-0.0257106032,-1.0935814746,-0.4548012649,-0.9896979952,-0.0716391678,-0.0310585952,-0.4801192628,-0.8581899659,-0.5589908945,-0.9203600645,-0.7029121203,0.391160215,1.3781451095,-0.6601846122,-1.2071539371,-0.3975320953,-0.4272930397,-0.4801389192,-0.3084940839,-0.0597256344,-0.1290047492,-1.0874812899,-0.6698047634,-0.0486959133,0.4835774683,0.0973247055,-0.7704710447,0.5022686366,0.3447951697,0.219101581,0.111278576,0.3608416331,0.0095819211,-1.1301495183,-1.4424304063,-0.4265253846,-0.930676994,-0.3527341599,-0.883205404,-0.6110383596,0.236917422,-0.6361300726,-0.6629498564,0.0822256944,0.3527628837,-1.0396446975,-0.5021354196,-0.6151361633,0.4370956273,0.1286763739,0.322636636,0.0461748257,-0.5985442757,-0.1841096084,-0.5154707689,-0.821580327,-6.0105371595,-0.3835930706,7.1091489333,-0.6637673021,-0.4232529351,-0.5517196662,1.9088211062,-0.9131581123,-0.825368069,-0.0615339227,-0.664442738,-1.3881906335,0.1961296275,-0.2461132189,-0.875034658,1.4745563597,-1.4655897238,-0.3903266572,0.1034526607,0.3447508246,-0.1108005581,-0.1069286559,0.3504891251,0.0298436688,0.5217249846,0.8725519538,-0.4519932868,0.9175324389,0.0610487575,-0.3180722377,0.2832778889,0.1933733004,0.619293536,0.2809421753,0.1166174203,-0.0680068952,0.2440744671,0.2602390232,0.758311749,0.0812177655,0.2119806889,0.7968503783,-0.4776354028,-0.259511756,0.3130036747,2.8596288257,-0.5855752028,-0.4108836312,0.0544011077,-0.3286055209,1.1099252348,-0.3113568024,0.1122246501,-0.131021243,0.2568844544,0.5574007312,-0.0391614094,0.4057604956,0.6396463088,0.5695691676,0.5857973161,-0.1749078379,-0.4672818957,-0.0241379097,0.9511325772,0.0671333807,3.1873971742,1.786860767,-0.4621061014,-0.5246464186,2.1310166331,-0.2869808966,0.8746044684,-0.4168858248,-0.8995891451,0.4494592469,0.872376733,-0.8085032807,-0.1700381584,-0.6732743663,-0.3904897732,0.333932799,-0.3197504457,0.013534437,-0.3551860093,0.2500430967,-0.2275186125,0.5672830818,0.7664680518,0.042158968,0.6791082114,0.3429532681,-0.2677102436,-0.7583929516,-0.0227868482,0.7905323088,0.4198942066,-0.1127584457,0.1160232141,-0.4899186312,0.7881629648,-0.1130747454,-0.5617076399,-0.3314200643,-0.4299130734,-0.1669473661,-0.6669239803,0.1515146034,-0.1802300469,0.3858385011,0.3987204669,0.8195587827,-0.4582306121,0.0381318566,-0.1965535284,-0.7933801374,0.4359946097,0.590292763,-1.551774568,0.3397981711,-1.5183670529,-9.4071890381,-0.4664704351,0.9662791304,-0.5045102943,0.5384196306,0.9075338404,0.4576689546,-0.2821965976,0.0811854844,4.2679971379,-0.8840527529,-0.3089076275,-0.0621640816,0.4002250884,0.8441545954,0.4562801192,-0.3896433305,-0.5154086753,0.5555859732,0.260610794,-0.6271015909,9.3426520638,6.0192083206,0.0914718563,-0.0247905377,-1.0430861771,-0.4221072347,-3.4419176272
